{"learner":{"attributes":{},"gradient_booster":{"model":{"gbtree_model_param":{"num_trees":"600","size_leaf_vector":"0"},"tree_info":[0,0,0,0,0,0,0,0,0,0,0,0,0,0,0,0,0,0,0,0,0,0,0,0,0,0,0,0,0,0,0,0,0,0,0,0,0,0,0,0,0,0,0,0,0,0,0,0,0,0,0,0,0,0,0,0,0,0,0,0,0,0,0,0,0,0,0,0,0,0,0,0,0,0,0,0,0,0,0,0,0,0,0,0,0,0,0,0,0,0,0,0,0,0,0,0,0,0,0,0,0,0,0,0,0,0,0,0,0,0,0,0,0,0,0,0,0,0,0,0,0,0,0,0,0,0,0,0,0,0,0,0,0,0,0,0,0,0,0,0,0,0,0,0,0,0,0,0,0,0,0,0,0,0,0,0,0,0,0,0,0,0,0,0,0,0,0,0,0,0,0,0,0,0,0,0,0,0,0,0,0,0,0,0,0,0,0,0,0,0,0,0,0,0,0,0,0,0,0,0,0,0,0,0,0,0,0,0,0,0,0,0,0,0,0,0,0,0,0,0,0,0,0,0,0,0,0,0,0,0,0,0,0,0,0,0,0,0,0,0,0,0,0,0,0,0,0,0,0,0,0,0,0,0,0,0,0,0,0,0,0,0,0,0,0,0,0,0,0,0,0,0,0,0,0,0,0,0,0,0,0,0,0,0,0,0,0,0,0,0,0,0,0,0,0,0,0,0,0,0,0,0,0,0,0,0,0,0,0,0,0,0,0,0,0,0,0,0,0,0,0,0,0,0,0,0,0,0,0,0,0,0,0,0,0,0,0,0,0,0,0,0,0,0,0,0,0,0,0,0,0,0,0,0,0,0,0,0,0,0,0,0,0,0,0,0,0,0,0,0,0,0,0,0,0,0,0,0,0,0,0,0,0,0,0,0,0,0,0,0,0,0,0,0,0,0,0,0,0,0,0,0,0,0,0,0,0,0,0,0,0,0,0,0,0,0,0,0,0,0,0,0,0,0,0,0,0,0,0,0,0,0,0,0,0,0,0,0,0,0,0,0,0,0,0,0,0,0,0,0,0,0,0,0,0,0,0,0,0,0,0,0,0,0,0,0,0,0,0,0,0,0,0,0,0,0,0,0,0,0,0,0,0,0,0,0,0,0,0,0,0,0,0,0,0,0,0,0,0,0,0,0,0,0,0,0,0,0,0,0,0,0,0,0,0,0,0,0,0,0,0,0,0,0,0,0,0,0,0,0,0,0,0,0,0,0,0,0,0,0,0,0,0,0,0,0,0,0,0,0,0,0,0,0,0,0,0,0,0,0,0,0,0,0,0,0,0,0,0,0,0,0,0,0,0,0,0,0,0,0,0,0,0,0,0,0,0,0,0,0,0,0,0,0,0,0,0,0,0,0],"trees":[{"base_weights":[-6.89238621731647072e-09,2.46814623475074768e-01,-1.85035824775695801e-01,-5.76200634241104126e-02,3.74845862388610840e-01,-3.02358865737915039e-01,9.30587574839591980e-02,-4.04974788427352905e-01,-1.05954715982079506e-02],"default_left":[true,true,true,false,false,true,false,false,false],"id":0,"leaf_child_counts":[0,2,1,0,0,2,0,0,0],"left_children":[1,3,5,-1,-1,7,-1,-1,-1],"loss_changes":[4.34076160192489624e-01,1.80333301424980164e-01,2.05373421311378479e-01,0.00000000000000000e+00,0.00000000000000000e+00,1.17137461900711060e-01,0.00000000000000000e+00,0.00000000000000000e+00,0.00000000000000000e+00],"parents":[2147483647,0,0,1,1,2,2,5,5],"right_children":[2,4,6,-1,-1,8,-1,-1,-1],"split_conditions":[-1.11195996403694153e-01,-4.57611074671149254e-03,2.26195126771926880e-01,-1.72860192833468318e-04,1.12453754991292953e-03,6.87549710273742676e-02,2.79176281765103340e-04,-1.21492438483983278e-03,-3.17864141834434122e-05],"split_indices":[567,133,284,0,0,315,0,0,0],"sum_hessian":[7.50471830368041992e+00,3.07250547409057617e+00,4.43221282958984375e+00,1.07242643833160400e+00,2.00007915496826172e+00,3.05578184127807617e+00,1.37643074989318848e+00,1.97361755371093750e+00,1.08216440677642822e+00],"tree_param":{"num_feature":"600","num_nodes":"9","size_leaf_vector":"0"}},{"base_weights":[-1.76884231706253559e-08,5.65113663673400879e-01,-2.66639858484268188e-01,6.75601780414581299e-01,1.12546794116497040e-01,-3.87563467025756836e-01,1.11049003899097443e-01,-4.72378075122833252e-01,-4.06152307987213135e-02,3.56563925743103027e-01,-1.90932020545005798e-01,-1.67956978082656860e-01,-5.92263519763946533e-01,-2.99994975328445435e-01,5.54421693086624146e-02],"default_left":[true,true,true,false,false,true,true,true,false,false,false,true,false,false,false],"id":1,"leaf_child_counts":[0,2,0,0,0,1,2,1,0,0,0,2,0,0,0],"left_children":[1,3,5,-1,-1,7,9,11,-1,-1,-1,13,-1,-1,-1],"loss_changes":[2.25013804435729980e+00,1.63337230682373047e-01,5.06415784358978271e-01,0.00000000000000000e+00,0.00000000000000000e+00,2.13517665863037109e-01,3.08137446641921997e-01,1.29006624221801758e-01,0.00000000000000000e+00,0.00000000000000000e+00,0.00000000000000000e+00,1.09982393682003021e-01,0.00000000000000000e+00,0.00000000000000000e+00,0.00000000000000000e+00],"parents":[2147483647,0,0,1,1,2,2,5,5,6,6,7,7,11,11],"right_children":[2,4,6,-1,-1,8,10,12,-1,-1,-1,14,-1,-1,-1],"split_conditions":[-3.32557618618011475e-01,1.96186769753694534e-02,1.92616134881973267e-01,2.02680542133748531e-03,3.37640376528725028e-04,2.26195126771926880e-01,-1.45600765943527222e-01,-8.26459974050521851e-02,-1.21845696412492543e-04,1.06969173066318035e-03,-5.72796037886291742e-04,3.10325007885694504e-02,-1.77679059561342001e-03,-8.99984908755868673e-04,1.66326513863168657e-04],"split_indices":[566,484,488,0,0,284,461,368,0,0,0,95,0,0,0],"sum_hessian":[1.29330425262451172e+01,3.78716826438903809e+00,9.14587497711181641e+00,2.64789772033691406e+00,1.13927066326141357e+00,6.90801095962524414e+00,2.23786377906799316e+00,5.26050901412963867e+00,1.64750182628631592e+00,1.13463771343231201e+00,1.10322618484497070e+00,2.16471076011657715e+00,3.09579801559448242e+00,1.14506530761718750e+00,1.01964557170867920e+00],"tree_param":{"num_feature":"600","num_nodes":"15","size_leaf_vector":"0"}},{"base_weights":[3.68285846263916028e-09,6.94078743457794189e-01,-4.04297977685928345e-01,8.01724016666412354e-01,-4.01441752910614014e-02,-5.13906717300415039e-01,3.29610437154769897e-01,9.60069000720977783e-02,-5.80566167831420898e-01,-4.11975570023059845e-02,-6.24781131744384766e-01,-6.76448941230773926e-01,-2.07301408052444458e-01],"default_left":[true,true,true,false,false,true,false,false,true,false,true,false,false],"id":2,"leaf_child_counts":[0,2,1,0,0,1,0,0,1,0,2,0,0],"left_children":[1,3,5,-1,-1,7,-1,-1,9,-1,11,-1,-1],"loss_changes":[6.68869018554687500e+00,7.25616931915283203e-01,1.38103365898132324e+00,0.00000000000000000e+00,0.00000000000000000e+00,6.04427814483642578e-01,0.00000000000000000e+00,0.00000000000000000e+00,2.67782688140869141e-01,0.00000000000000000e+00,1.03620052337646484e-01,0.00000000000000000e+00,0.00000000000000000e+00],"parents":[2147483647,0,0,1,1,2,2,5,5,8,8,10,10],"right_children":[2,4,6,-1,-1,8,-1,-1,10,-1,12,-1,-1],"split_conditions":[-3.32557618618011475e-01,-2.75959037244319916e-02,6.01015537977218628e-02,2.40517198108136654e-03,-1.20432523544877768e-04,-1.46958887577056885e-01,9.88831277936697006e-04,2.88020703010261059e-04,-1.74852058291435242e-01,-1.23592675663530827e-04,-1.87884941697120667e-02,-2.02934676781296730e-03,-6.21904211584478617e-04],"split_indices":[566,207,53,0,0,299,0,0,367,0,180,0,0],"sum_hessian":[2.18358573913574219e+01,7.77366495132446289e+00,1.40621919631958008e+01,6.69950675964355469e+00,1.07415819168090820e+00,1.24957304000854492e+01,1.56646203994750977e+00,1.18776667118072510e+00,1.13079633712768555e+01,1.00310134887695313e+00,1.03048620223999023e+01,8.61797523498535156e+00,1.68688666820526123e+00],"tree_param":{"num_feature":"600","num_nodes":"13","size_leaf_vector":"0"}},{"base_weights":[2.43913440556298156e-08,7.05846786499023438e-01,-4.56410378217697144e-01,-7.35975727438926697e-02,8.02893280982971191e-01,-5.70991218090057373e-01,2.90984243154525757e-01,-1.33823603391647339e-02,-6.25947535037994385e-01,-7.93445184826850891e-02,-6.65403127670288086e-01,-6.97586059570312500e-01,-1.85662135481834412e-01],"default_left":[true,true,true,false,false,true,false,false,true,false,true,false,false],"id":3,"leaf_child_counts":[0,2,1,0,0,1,0,0,1,0,2,0,0],"left_children":[1,3,5,-1,-1,7,-1,-1,9,-1,11,-1,-1],"loss_changes":[8.44343662261962891e+00,8.37614059448242188e-01,1.52923560142517090e+00,0.00000000000000000e+00,0.00000000000000000e+00,4.24893856048583984e-01,0.00000000000000000e+00,0.00000000000000000e+00,2.24300861358642578e-01,0.00000000000000000e+00,5.34124374389648438e-02,0.00000000000000000e+00,0.00000000000000000e+00],"parents":[2147483647,0,0,1,1,2,2,5,5,8,8,10,10],"right_children":[2,4,6,-1,-1,8,-1,-1,10,-1,12,-1,-1],"split_conditions":[-3.32557618618011475e-01,-1.51470273733139038e-01,6.01015537977218628e-02,-2.20792717300355434e-04,2.40867980755865574e-03,-1.76225006580352783e-01,8.72952747158706188e-04,-4.01470824726857245e-05,-1.42616748809814453e-01,-2.38033564528450370e-04,1.53411865234375000e-01,-2.09275819361209869e-03,-5.56986429728567600e-04],"split_indices":[566,437,53,0,0,367,0,0,299,0,467,0,0],"sum_hessian":[2.42091712951660156e+01,9.29216194152832031e+00,1.49170093536376953e+01,1.05559682846069336e+00,8.23656463623046875e+00,1.31387681961059570e+01,1.77824079990386963e+00,1.29030716419219971e+00,1.18484611511230469e+01,1.00039160251617432e+00,1.08480701446533203e+01,9.74054718017578125e+00,1.10752248764038086e+00],"tree_param":{"num_feature":"600","num_nodes":"13","size_leaf_vector":"0"}},{"base_weights":[7.04463953837830559e-09,6.95581674575805664e-01,-4.67003017663955688e-01,7.68871046602725983e-03,7.97175288200378418e-01,-5.80766856670379639e-01,2.45226487517356873e-01,8.44699323177337646e-01,2.38068014383316040e-01,3.86933572590351105e-02,-6.48422718048095703e-01,-1.45614668726921082e-01,-6.87929153442382813e-01,-7.19744324684143066e-01,-1.84942692518234253e-01],"default_left":[true,true,true,false,true,true,false,false,false,false,true,false,true,false,false],"id":4,"leaf_child_counts":[0,1,1,0,2,1,0,0,0,0,1,0,2,0,0],"left_children":[1,3,5,-1,7,9,-1,-1,-1,-1,11,-1,13,-1,-1],"loss_changes":[8.26284027099609375e+00,7.07945823669433594e-01,1.37555074691772461e+00,0.00000000000000000e+00,3.52053642272949219e-02,5.87512969970703125e-01,0.00000000000000000e+00,0.00000000000000000e+00,0.00000000000000000e+00,0.00000000000000000e+00,1.41270160675048828e-01,0.00000000000000000e+00,4.29291725158691406e-02,0.00000000000000000e+00,0.00000000000000000e+00],"parents":[2147483647,0,0,1,1,2,2,4,4,5,5,10,10,12,12],"right_children":[2,4,6,-1,8,10,-1,-1,-1,-1,12,-1,14,-1,-1],"split_conditions":[-3.32557618618011475e-01,1.27419251948595047e-02,6.01015537977218628e-02,2.30661316891200840e-05,-4.22989577054977417e-02,-1.76225006580352783e-01,7.35679466743022203e-04,2.53409799188375473e-03,7.14204041287302971e-04,1.16080074803903699e-04,-1.37843430042266846e-01,-4.36844013165682554e-04,8.99817124009132385e-02,-2.15923297218978405e-03,-5.54828089661896229e-04],"split_indices":[566,243,53,0,157,367,0,0,0,0,265,0,99,0,0],"sum_hessian":[2.34367465972900391e+01,9.21778202056884766e+00,1.42189636230468750e+01,1.32459509372711182e+00,7.89318704605102539e+00,1.24197463989257813e+01,1.79921710491180420e+00,6.80404424667358398e+00,1.08914291858673096e+00,1.26504266262054443e+00,1.11547040939331055e+01,1.15394914150238037e+00,1.00007543563842773e+01,9.00050830841064453e+00,1.00024676322937012e+00],"tree_param":{"num_feature":"600","num_nodes":"15","size_leaf_vector":"0"}},{"base_weights":[3.27293783186632936e-08,6.78048491477966309e-01,-4.77154046297073364e-01,8.11848044395446777e-01,-2.46000185608863831e-01,-5.93453407287597656e-01,2.43821501731872559e-01,-2.68425792455673218e-02,-6.63980782032012939e-01,-6.94827616214752197e-01,-1.82520449161529541e-01,-7.24726617336273193e-01,-2.03078955411911011e-01],"default_left":[true,true,true,false,false,true,false,false,true,true,false,false,false],"id":5,"leaf_child_counts":[0,2,1,0,0,1,0,0,1,2,0,0,0],"left_children":[1,3,5,-1,-1,7,-1,-1,9,11,-1,-1,-1],"loss_changes":[8.53779697418212891e+00,1.54736328125000000e+00,1.44345068931579590e+00,0.00000000000000000e+00,0.00000000000000000e+00,5.26810169219970703e-01,0.00000000000000000e+00,0.00000000000000000e+00,5.25588989257812500e-02,1.44753456115722656e-02,0.00000000000000000e+00,0.00000000000000000e+00,0.00000000000000000e+00],"parents":[2147483647,0,0,1,1,2,2,5,5,8,8,9,9],"right_children":[2,4,6,-1,-1,8,-1,-1,10,12,-1,-1,-1],"split_conditions":[-3.32557618618011475e-01,-1.62533864378929138e-01,6.01015537977218628e-02,2.43554404005408287e-03,-7.38000555429607630e-04,-1.66945531964302063e-01,7.31464533600956202e-04,-8.05277377367019653e-05,1.41810476779937744e-01,1.21516831219196320e-01,-5.47561328858137131e-04,-2.17417976818978786e-03,-6.09236885793507099e-04],"split_indices":[566,36,53,0,0,367,0,0,129,565,0,0,0],"sum_hessian":[2.43892154693603516e+01,9.90001201629638672e+00,1.44892024993896484e+01,8.75389575958251953e+00,1.14611601829528809e+00,1.26289262771606445e+01,1.86027610301971436e+00,1.55077040195465088e+00,1.10781564712524414e+01,9.99463939666748047e+00,1.08351647853851318e+00,8.97516250610351563e+00,1.01947736740112305e+00],"tree_param":{"num_feature":"600","num_nodes":"13","size_leaf_vector":"0"}},{"base_weights":[-2.27114185236132471e-08,7.21263468265533447e-01,-5.01975297927856445e-01,3.76847535371780396e-02,8.08815360069274902e-01,-6.06673657894134521e-01,1.95835873484611511e-01,4.10971269011497498e-02,-6.72647714614868164e-01,-2.45345041155815125e-01,-7.14992702007293701e-01],"default_left":[true,true,true,false,false,true,false,false,true,false,false],"id":6,"leaf_child_counts":[0,2,1,0,0,1,0,0,2,0,0],"left_children":[1,3,5,-1,-1,7,-1,-1,9,-1,-1],"loss_changes":[9.72057342529296875e+00,6.28907203674316406e-01,1.27538990974426270e+00,0.00000000000000000e+00,0.00000000000000000e+00,6.26348018646240234e-01,0.00000000000000000e+00,0.00000000000000000e+00,5.56783676147460938e-02,0.00000000000000000e+00,0.00000000000000000e+00],"parents":[2147483647,0,0,1,1,2,2,5,5,8,8],"right_children":[2,4,6,-1,-1,8,-1,-1,10,-1,-1],"split_conditions":[-3.32557618618011475e-01,-4.31143352761864662e-03,6.01015537977218628e-02,1.13054258690681309e-04,2.42644618265330791e-03,-1.76225006580352783e-01,5.87507616728544235e-04,1.23291378258727491e-04,6.59323763102293015e-03,-7.36035115551203489e-04,-2.14497814886271954e-03],"split_indices":[566,79,53,0,0,367,0,0,573,0,0],"sum_hessian":[2.48482284545898438e+01,1.00175924301147461e+01,1.48306350708007813e+01,1.29977440834045410e+00,8.71781826019287109e+00,1.30093412399291992e+01,1.82129395008087158e+00,1.23735523223876953e+00,1.17719860076904297e+01,1.67396748065948486e+00,1.00980186462402344e+01],"tree_param":{"num_feature":"600","num_nodes":"11","size_leaf_vector":"0"}},{"base_weights":[1.00882475706498553e-08,7.18447566032409668e-01,-5.26186525821685791e-01,8.28196883201599121e-01,-1.56107470393180847e-01,-6.20718181133270264e-01,2.11813375353813171e-01,-8.93703196197748184e-03,-6.87938451766967773e-01,-7.25248336791992188e-01,-2.18229249119758606e-01],"default_left":[true,true,true,false,false,true,false,false,true,false,false],"id":7,"leaf_child_counts":[0,2,1,0,0,1,0,0,2,0,0],"left_children":[1,3,5,-1,-1,7,-1,-1,9,-1,-1],"loss_changes":[1.04774055480957031e+01,1.25390768051147461e+00,1.24758386611938477e+00,0.00000000000000000e+00,0.00000000000000000e+00,5.87523937225341797e-01,0.00000000000000000e+00,0.00000000000000000e+00,6.94432258605957031e-02,0.00000000000000000e+00,0.00000000000000000e+00],"parents":[2147483647,0,0,1,1,2,2,5,5,8,8],"right_children":[2,4,6,-1,-1,8,-1,-1,10,-1,-1],"split_conditions":[-3.32557618618011475e-01,-2.75959037244319916e-02,6.01015537977218628e-02,2.48459074646234512e-03,-4.68322425149381161e-04,-1.66945531964302063e-01,6.35440112091600895e-04,-2.68110961769707501e-05,1.20792731642723083e-01,-2.17574508860707283e-03,-6.54687755741178989e-04],"split_indices":[566,207,53,0,0,367,0,0,565,0,0],"sum_hessian":[2.57152595520019531e+01,1.07170143127441406e+01,1.49982442855834961e+01,9.56917095184326172e+00,1.14784276485443115e+00,1.34361085891723633e+01,1.56213581562042236e+00,1.44231891632080078e+00,1.19937896728515625e+01,1.06072034835815430e+01,1.38658654689788818e+00],"tree_param":{"num_feature":"600","num_nodes":"11","size_leaf_vector":"0"}},{"base_weights":[-2.83556005342688877e-08,7.11083769798278809e-01,-5.12043595314025879e-01,8.15554678440093994e-01,-1.68955221772193909e-01,-6.12507522106170654e-01,2.63462513685226440e-01,-8.47673341631889343e-02,-6.77427172660827637e-01,-7.15599477291107178e-01,-1.76757946610450745e-01,-7.44444012641906738e-01,-2.09347620606422424e-01],"default_left":[true,true,true,false,false,true,false,false,true,true,false,false,false],"id":8,"leaf_child_counts":[0,2,1,0,0,1,0,0,1,2,0,0,0],"left_children":[1,3,5,-1,-1,7,-1,-1,9,11,-1,-1,-1],"loss_changes":[9.85723686218261719e+00,1.17977333068847656e+00,1.38760280609130859e+00,0.00000000000000000e+00,0.00000000000000000e+00,4.30265903472900391e-01,0.00000000000000000e+00,0.00000000000000000e+00,1.13027095794677734e-01,9.40370559692382813e-03,0.00000000000000000e+00,0.00000000000000000e+00,0.00000000000000000e+00],"parents":[2147483647,0,0,1,1,2,2,5,5,8,8,9,9],"right_children":[2,4,6,-1,-1,8,-1,-1,10,12,-1,-1,-1],"split_conditions":[-3.32557618618011475e-01,-2.75959037244319916e-02,6.01015537977218628e-02,2.44666403159499168e-03,-5.06865675561130047e-04,-1.66945531964302063e-01,7.90387566667050123e-04,-2.54301994573324919e-04,1.20792731642723083e-01,1.40038102865219116e-01,-5.30273828189820051e-04,-2.23333202302455902e-03,-6.28042849712073803e-04],"split_indices":[566,207,53,0,0,367,0,0,565,129,0,0,0],"sum_hessian":[2.50724468231201172e+01,1.03334655761718750e+01,1.47389802932739258e+01,9.30243301391601563e+00,1.03103280067443848e+00,1.32346630096435547e+01,1.50431799888610840e+00,1.70228540897369385e+00,1.15323772430419922e+01,1.03165321350097656e+01,1.21584522724151611e+00,9.31527805328369141e+00,1.00125443935394287e+00],"tree_param":{"num_feature":"600","num_nodes":"13","size_leaf_vector":"0"}},{"base_weights":[6.44821041007048734e-09,7.03631639480590820e-01,-4.89322841167449951e-01,-1.24695166945457458e-01,8.02550613880157471e-01,-5.93404233455657959e-01,2.00906366109848022e-01,8.42458069324493408e-01,2.37300902605056763e-01,-1.56177638564258814e-03,-6.52742266654968262e-01,-6.93361341953277588e-01,-1.54968902468681335e-01],"default_left":[true,true,true,false,true,true,false,false,false,false,true,false,false],"id":9,"leaf_child_counts":[0,1,1,0,2,1,0,0,0,0,2,0,0],"left_children":[1,3,5,-1,7,9,-1,-1,-1,-1,11,-1,-1],"loss_changes":[8.96641349792480469e+00,9.75321292877197266e-01,1.22270226478576660e+00,0.00000000000000000e+00,1.83715820312500000e-02,4.76613044738769531e-01,0.00000000000000000e+00,0.00000000000000000e+00,0.00000000000000000e+00,0.00000000000000000e+00,1.42433643341064453e-01,0.00000000000000000e+00,0.00000000000000000e+00],"parents":[2147483647,0,0,1,1,2,2,4,4,5,5,10,10],"right_children":[2,4,6,-1,8,10,-1,-1,-1,-1,12,-1,-1],"split_conditions":[-3.32557618618011475e-01,6.71594683080911636e-03,6.01015537977218628e-02,-3.74085502699017525e-04,-5.67334964871406555e-02,-1.76225006580352783e-01,6.02719082962721586e-04,2.52737430855631828e-03,7.11902684997767210e-04,-4.68532925879117101e-06,1.20792731642723083e-01,-2.08008405752480030e-03,-4.64906712295487523e-04],"split_indices":[566,243,53,0,136,367,0,0,0,0,565,0,0],"sum_hessian":[2.40422134399414063e+01,9.68192386627197266e+00,1.43602886199951172e+01,1.00507295131683350e+00,8.67685127258300781e+00,1.26005058288574219e+01,1.75978255271911621e+00,7.64657449722290039e+00,1.03027677536010742e+00,1.24172747135162354e+00,1.13587779998779297e+01,1.01385326385498047e+01,1.22024559974670410e+00],"tree_param":{"num_feature":"600","num_nodes":"13","size_leaf_vector":"0"}},{"base_weights":[8.63259863592702459e-09,7.14954078197479248e-01,-5.15089690685272217e-01,8.02439212799072266e-01,-3.70418392121791840e-02,-6.18589997291564941e-01,2.57909089326858521e-01,8.41773688793182373e-01,2.22583591938018799e-01,-3.66344844223931432e-04,-6.87609970569610596e-01,-2.49939948320388794e-01,-7.27286934852600098e-01],"default_left":[true,true,true,true,false,true,false,false,false,false,true,false,false],"id":10,"leaf_child_counts":[0,1,1,2,0,1,0,0,0,0,2,0,0],"left_children":[1,3,5,7,-1,9,-1,-1,-1,-1,11,-1,-1],"loss_changes":[1.01559791564941406e+01,7.89477825164794922e-01,1.44198513031005859e+00,4.95915412902832031e-02,0.00000000000000000e+00,6.15510463714599609e-01,0.00000000000000000e+00,0.00000000000000000e+00,0.00000000000000000e+00,0.00000000000000000e+00,4.36429977416992188e-02,0.00000000000000000e+00,0.00000000000000000e+00],"parents":[2147483647,0,0,1,1,2,2,3,3,5,5,10,10],"right_children":[2,4,6,8,-1,10,-1,-1,-1,-1,12,-1,-1],"split_conditions":[-3.32557618618011475e-01,8.51135030388832092e-02,6.01015537977218628e-02,-2.37613059580326080e-02,-1.11125518742483109e-04,-1.66945531964302063e-01,7.73727253545075655e-04,2.52532097510993481e-03,6.67750777211040258e-04,-1.09903453449078370e-06,6.59323763102293015e-03,-7.49819853808730841e-04,-2.18186085112392902e-03],"split_indices":[566,564,53,157,0,367,0,0,0,0,573,0,0],"sum_hessian":[2.55778732299804688e+01,1.05484333038330078e+01,1.50294399261474609e+01,9.38905715942382813e+00,1.15937638282775879e+00,1.34308729171752930e+01,1.59856748580932617e+00,8.36961078643798828e+00,1.01944673061370850e+00,1.44982731342315674e+00,1.19810457229614258e+01,1.60258281230926514e+00,1.03784627914428711e+01],"tree_param":{"num_feature":"600","num_nodes":"13","size_leaf_vector":"0"}},{"base_weights":[-2.35848336416211168e-08,7.17719256877899170e-01,-5.20727276802062988e-01,-1.65385410189628601e-01,8.18711817264556885e-01,-6.23809039592742920e-01,1.63351058959960938e-01,-1.17437615990638733e-01,-6.84282302856445313e-01,-7.12342798709869385e-01,-1.85298353433609009e-01],"default_left":[true,true,true,false,false,true,false,false,true,false,false],"id":11,"leaf_child_counts":[0,2,1,0,0,1,0,0,2,0,0],"left_children":[1,3,5,-1,-1,7,-1,-1,9,-1,-1],"loss_changes":[1.05660619735717773e+01,1.19559097290039063e+00,1.25724935531616211e+00,0.00000000000000000e+00,0.00000000000000000e+00,3.62008571624755859e-01,0.00000000000000000e+00,0.00000000000000000e+00,4.57954406738281250e-02,0.00000000000000000e+00,0.00000000000000000e+00],"parents":[2147483647,0,0,1,1,2,2,5,5,8,8],"right_children":[2,4,6,-1,-1,8,-1,-1,10,-1,-1],"split_conditions":[-3.32557618618011475e-01,-4.64517204090952873e-03,6.01015537977218628e-02,-4.96156222652643919e-04,2.45613558217883110e-03,-1.66945531964302063e-01,4.90053207613527775e-04,-3.52312839822843671e-04,1.45247489213943481e-01,-2.13702837936580181e-03,-5.55895036086440086e-04],"split_indices":[566,133,53,0,0,367,0,0,129,0,0],"sum_hessian":[2.62714614868164063e+01,1.08872470855712891e+01,1.53842134475708008e+01,1.05186617374420166e+00,9.83538150787353516e+00,1.34461545944213867e+01,1.93805944919586182e+00,1.74835169315338135e+00,1.16978025436401367e+01,1.06701755523681641e+01,1.02762687206268311e+00],"tree_param":{"num_feature":"600","num_nodes":"11","size_leaf_vector":"0"}},{"base_weights":[-6.97016799833249934e-09,7.38491594791412354e-01,-5.38513243198394775e-01,8.25568020343780518e-01,-1.05933256447315216e-01,-6.37933373451232910e-01,2.18896985054016113e-01,-3.16085889935493469e-02,-6.94515407085418701e-01,-7.18946516513824463e-01,-2.03183278441429138e-01,-2.68488317728042603e-01,-7.55134642124176025e-01],"default_left":[true,true,true,false,false,true,false,false,true,true,false,false,false],"id":12,"leaf_child_counts":[0,2,1,0,0,1,0,0,1,2,0,0,0],"left_children":[1,3,5,-1,-1,7,-1,-1,9,11,-1,-1,-1],"loss_changes":[1.14983940124511719e+01,9.83976840972900391e-01,1.39872264862060547e+00,0.00000000000000000e+00,0.00000000000000000e+00,4.93882656097412109e-01,0.00000000000000000e+00,0.00000000000000000e+00,1.84311866760253906e-02,3.65543365478515625e-03,0.00000000000000000e+00,0.00000000000000000e+00,0.00000000000000000e+00],"parents":[2147483647,0,0,1,1,2,2,5,5,8,8,9,9],"right_children":[2,4,6,-1,-1,8,-1,-1,10,12,-1,-1,-1],"split_conditions":[-3.32557618618011475e-01,-2.75959037244319916e-02,6.01015537977218628e-02,2.47670407406985760e-03,-3.17799771437421441e-04,-1.76225006580352783e-01,6.56690972391515970e-04,-9.48257657000795007e-05,1.53411865234375000e-01,2.34136125072836876e-04,-6.09549868386238813e-04,-8.05464980658143759e-04,-2.26540397852659225e-03],"split_indices":[566,207,53,0,0,367,0,0,467,573,0,0,0],"sum_hessian":[2.69131393432617188e+01,1.11926784515380859e+01,1.57204618453979492e+01,1.01666336059570313e+01,1.02604448795318604e+00,1.40358190536499023e+01,1.68464291095733643e+00,1.33105659484863281e+00,1.27047624588012695e+01,1.16616382598876953e+01,1.04312431812286377e+00,1.49325954914093018e+00,1.01683788299560547e+01],"tree_param":{"num_feature":"600","num_nodes":"13","size_leaf_vector":"0"}},{"base_weights":[-1.59192783399930704e-08,6.92710220813751221e-01,-5.15721440315246582e-01,8.02865982055664063e-01,-2.09756627678871155e-01,-6.14762187004089355e-01,1.86709254980087280e-01,-5.35696968436241150e-02,-6.77483141422271729e-01,-7.13649630546569824e-01,-1.64803698658943176e-01,-7.43744611740112305e-01,-2.03817144036293030e-01],"default_left":[true,true,true,false,false,true,false,false,true,true,false,false,false],"id":13,"leaf_child_counts":[0,2,1,0,0,1,0,0,1,2,0,0,0],"left_children":[1,3,5,-1,-1,7,-1,-1,9,11,-1,-1,-1],"loss_changes":[1.01419677734375000e+01,1.37285137176513672e+00,1.24692726135253906e+00,0.00000000000000000e+00,0.00000000000000000e+00,4.73931789398193359e-01,0.00000000000000000e+00,0.00000000000000000e+00,1.22551441192626953e-01,2.94451713562011719e-02,0.00000000000000000e+00,0.00000000000000000e+00,0.00000000000000000e+00],"parents":[2147483647,0,0,1,1,2,2,5,5,8,8,9,9],"right_children":[2,4,6,-1,-1,8,-1,-1,10,12,-1,-1,-1],"split_conditions":[-3.32557618618011475e-01,-2.75959037244319916e-02,6.01015537977218628e-02,2.40859785117208958e-03,-6.29269867204129696e-04,-1.66945531964302063e-01,5.60127780772745609e-04,-1.60709096235223114e-04,1.20792731642723083e-01,1.40038102865219116e-01,-4.94411098770797253e-04,-2.23123375326395035e-03,-6.11451454460620880e-04],"split_indices":[566,207,53,0,0,367,0,0,565,129,0,0,0],"sum_hessian":[2.63893508911132813e+01,1.11157007217407227e+01,1.52736492156982422e+01,1.00048646926879883e+01,1.11083590984344482e+00,1.34956140518188477e+01,1.77803516387939453e+00,1.54308021068572998e+00,1.19525337219238281e+01,1.07987451553344727e+01,1.15378808975219727e+00,9.76360702514648438e+00,1.03513896465301514e+00],"tree_param":{"num_feature":"600","num_nodes":"13","size_leaf_vector":"0"}},{"base_weights":[-9.96704674349757624e-09,7.24174439907073975e-01,-5.25268495082855225e-01,7.95496106147766113e-01,1.17081226781010628e-02,-6.23011410236358643e-01,2.47306108474731445e-01,8.34730446338653564e-01,2.14908644556999207e-01,-8.22492167353630066e-02,-6.88754200935363770e-01,-1.57131493091583252e-01,-7.25372314453125000e-01],"default_left":[true,true,true,true,false,true,false,false,false,false,true,false,false],"id":14,"leaf_child_counts":[0,1,1,2,0,1,0,0,0,0,2,0,0],"left_children":[1,3,5,7,-1,9,-1,-1,-1,-1,11,-1,-1],"loss_changes":[1.08207645416259766e+01,5.98378658294677734e-01,1.39912128448486328e+00,6.78958892822265625e-02,0.00000000000000000e+00,4.73781108856201172e-01,0.00000000000000000e+00,0.00000000000000000e+00,0.00000000000000000e+00,0.00000000000000000e+00,1.42348766326904297e-01,0.00000000000000000e+00,0.00000000000000000e+00],"parents":[2147483647,0,0,1,1,2,2,3,3,5,5,10,10],"right_children":[2,4,6,8,-1,10,-1,-1,-1,-1,12,-1,-1],"split_conditions":[-3.32557618618011475e-01,8.51135030388832092e-02,6.01015537977218628e-02,-7.73984044790267944e-02,3.51243688783142716e-05,-1.66945531964302063e-01,7.41918338462710381e-04,2.50419136136770248e-03,6.44725922029465437e-04,-2.46747658820822835e-04,-1.37835636734962463e-01,-4.71394479973241687e-04,-2.17611691914498806e-03],"split_indices":[566,564,53,549,0,367,0,0,0,0,265,0,0],"sum_hessian":[2.64467964172363281e+01,1.09590940475463867e+01,1.54877023696899414e+01,9.85592555999755859e+00,1.10316872596740723e+00,1.39201717376708984e+01,1.56753087043762207e+00,8.82202529907226563e+00,1.03389990329742432e+00,1.75290155410766602e+00,1.21672706604003906e+01,1.12503659725189209e+00,1.10422334671020508e+01],"tree_param":{"num_feature":"600","num_nodes":"13","size_leaf_vector":"0"}},{"base_weights":[-3.30549880800390383e-08,7.06966400146484375e-01,-5.21382093429565430e-01,8.09056282043457031e-01,-1.85518220067024231e-01,-6.20801568031311035e-01,2.00492680072784424e-01,8.49232673645019531e-01,2.60655879974365234e-01,-4.68735694885253906e-02,-6.71372711658477783e-01,-1.76468238234519958e-01,-7.04121172428131104e-01,-7.33200132846832275e-01,-1.99043378233909607e-01],"default_left":[true,true,true,true,false,true,false,false,false,false,true,false,true,false,false],"id":15,"leaf_child_counts":[0,1,1,2,0,1,0,0,0,0,1,0,2,0,0],"left_children":[1,3,5,7,-1,9,-1,-1,-1,-1,11,-1,13,-1,-1],"loss_changes":[1.05572443008422852e+01,1.25777339935302734e+00,1.30752515792846680e+00,2.31118202209472656e-02,0.00000000000000000e+00,3.96144866943359375e-01,0.00000000000000000e+00,0.00000000000000000e+00,0.00000000000000000e+00,0.00000000000000000e+00,9.39755439758300781e-02,0.00000000000000000e+00,3.46369743347167969e-02,0.00000000000000000e+00,0.00000000000000000e+00],"parents":[2147483647,0,0,1,1,2,2,3,3,5,5,10,10,12,12],"right_children":[2,4,6,8,-1,10,-1,-1,-1,-1,12,-1,14,-1,-1],"split_conditions":[-3.32557618618011475e-01,-2.75959037244319916e-02,6.01015537977218628e-02,2.08982042968273163e-02,-5.56554645299911499e-04,-1.76225006580352783e-01,6.01478037424385548e-04,2.54769809544086456e-03,7.81967653892934322e-04,-1.40620715683326125e-04,-1.40326589345932007e-01,-5.29404729604721069e-04,9.17730033397674561e-02,-2.19960045069456100e-03,-5.97130157984793186e-04],"split_indices":[566,207,53,484,0,367,0,0,0,0,265,0,99,0,0],"sum_hessian":[2.66414985656738281e+01,1.11571063995361328e+01,1.54843921661376953e+01,1.00957479476928711e+01,1.06135809421539307e+00,1.37330379486083984e+01,1.75135421752929688e+00,8.89549255371093750e+00,1.20025575160980225e+00,1.26812052726745605e+00,1.24649171829223633e+01,1.17013180255889893e+00,1.12947854995727539e+01,1.02528381347656250e+01,1.04194712638854980e+00],"tree_param":{"num_feature":"600","num_nodes":"15","size_leaf_vector":"0"}},{"base_weights":[1.19933023512430736e-08,6.96223735809326172e-01,-5.03843903541564941e-01,7.95884966850280762e-01,-1.78227141499519348e-01,-6.12445414066314697e-01,2.53320217132568359e-01,2.19473168253898621e-01,8.39901983737945557e-01,-3.53968404233455658e-02,-6.66308701038360596e-01,-1.95577561855316162e-01,-7.00024604797363281e-01],"default_left":[true,true,true,true,false,true,false,false,false,false,true,false,false],"id":16,"leaf_child_counts":[0,1,1,2,0,1,0,0,0,0,2,0,0],"left_children":[1,3,5,7,-1,9,-1,-1,-1,-1,11,-1,-1],"loss_changes":[9.81583595275878906e+00,1.16569328308105469e+00,1.49005270004272461e+00,8.78858566284179688e-02,0.00000000000000000e+00,4.26795482635498047e-01,0.00000000000000000e+00,0.00000000000000000e+00,0.00000000000000000e+00,0.00000000000000000e+00,7.25426673889160156e-02,0.00000000000000000e+00,0.00000000000000000e+00],"parents":[2147483647,0,0,1,1,2,2,3,3,5,5,10,10],"right_children":[2,4,6,8,-1,10,-1,-1,-1,-1,12,-1,-1],"split_conditions":[-3.32557618618011475e-01,-2.75959037244319916e-02,6.01015537977218628e-02,5.68450056016445160e-03,-5.34681428689509630e-04,-1.76225006580352783e-01,7.59960676077753305e-04,6.58419507090002298e-04,2.51970603130757809e-03,-1.06190520455129445e-04,-1.37843430042266846e-01,-5.86732698138803244e-04,-2.10007373243570328e-03],"split_indices":[566,207,53,79,0,367,0,0,0,0,265,0,0],"sum_hessian":[2.59822368621826172e+01,1.07482376098632813e+01,1.52339992523193359e+01,9.72924232482910156e+00,1.01899600028991699e+00,1.34902057647705078e+01,1.74379324913024902e+00,1.11494314670562744e+00,8.61429882049560547e+00,1.29318702220916748e+00,1.21970186233520508e+01,1.26976025104522705e+00,1.09272584915161133e+01],"tree_param":{"num_feature":"600","num_nodes":"13","size_leaf_vector":"0"}},{"base_weights":[-1.15608074224837765e-08,7.12921202182769775e-01,-5.13458132743835449e-01,-7.83631727099418640e-02,7.96585738658905029e-01,-6.18455648422241211e-01,2.01876908540725708e-01,8.39310109615325928e-01,2.52737939357757568e-01,-5.34408390522003174e-02,-6.86093151569366455e-01,-1.73387914896011353e-01,-7.21874117851257324e-01],"default_left":[true,true,true,false,true,true,false,false,false,false,true,false,false],"id":17,"leaf_child_counts":[0,1,1,0,2,1,0,0,0,0,2,0,0],"left_children":[1,3,5,-1,7,9,-1,-1,-1,-1,11,-1,-1],"loss_changes":[1.04297733306884766e+01,8.52159976959228516e-01,1.36888885498046875e+00,0.00000000000000000e+00,4.06308174133300781e-02,5.24704933166503906e-01,0.00000000000000000e+00,0.00000000000000000e+00,0.00000000000000000e+00,0.00000000000000000e+00,1.13953113555908203e-01,0.00000000000000000e+00,0.00000000000000000e+00],"parents":[2147483647,0,0,1,1,2,2,4,4,5,5,10,10],"right_children":[2,4,6,-1,8,10,-1,-1,-1,-1,12,-1,-1],"split_conditions":[-3.32557618618011475e-01,-1.51470273733139038e-01,6.01015537977218628e-02,-2.35089522902853787e-04,-8.79472792148590088e-02,-1.66945531964302063e-01,6.05630746576935053e-04,2.51793046481907368e-03,7.58213805966079235e-04,-1.60322524607181549e-04,-1.37835636734962463e-01,-5.20163739565759897e-04,-2.16562231071293354e-03],"split_indices":[566,437,53,0,223,367,0,0,0,0,265,0,0],"sum_hessian":[2.64923496246337891e+01,1.09291219711303711e+01,1.55632276535034180e+01,1.05112540721893311e+00,9.87799644470214844e+00,1.36893291473388672e+01,1.87389850616455078e+00,8.65479850769042969e+00,1.22319805622100830e+00,1.65492272377014160e+00,1.20344057083129883e+01,1.16643190383911133e+00,1.08679742813110352e+01],"tree_param":{"num_feature":"600","num_nodes":"13","size_leaf_vector":"0"}},{"base_weights":[1.28405401866871216e-08,6.94123804569244385e-01,-4.87061589956283569e-01,-4.65617105364799500e-02,7.80783057212829590e-01,-5.91170370578765869e-01,1.92577332258224487e-01,2.33898743987083435e-01,8.30003023147583008e-01,5.34006468951702118e-02,-6.53938829898834229e-01,-1.70873194932937622e-01,-6.89259707927703857e-01],"default_left":[true,true,true,false,true,true,false,false,false,false,true,false,false],"id":18,"leaf_child_counts":[0,1,1,0,2,1,0,0,0,0,2,0,0],"left_children":[1,3,5,-1,7,9,-1,-1,-1,-1,11,-1,-1],"loss_changes":[8.93624782562255859e+00,7.35952854156494141e-01,1.21289944648742676e+00,0.00000000000000000e+00,7.00325965881347656e-02,5.89825630187988281e-01,0.00000000000000000e+00,0.00000000000000000e+00,0.00000000000000000e+00,0.00000000000000000e+00,9.67612266540527344e-02,0.00000000000000000e+00,0.00000000000000000e+00],"parents":[2147483647,0,0,1,1,2,2,4,4,5,5,10,10],"right_children":[2,4,6,-1,8,10,-1,-1,-1,-1,12,-1,-1],"split_conditions":[-3.32557618618011475e-01,1.82785969227552414e-02,6.01015537977218628e-02,-1.39685129397548735e-04,-8.65449905395507813e-01,-1.76225006580352783e-01,5.77731989324092865e-04,7.01696262694895267e-04,2.49000918120145798e-03,1.60201947437599301e-04,-1.37843430042266846e-01,-5.12619561050087214e-04,-2.06777919083833694e-03],"split_indices":[566,517,53,0,211,367,0,0,0,0,265,0,0],"sum_hessian":[2.44322643280029297e+01,9.89933967590332031e+00,1.45329236984252930e+01,1.08535945415496826e+00,8.81398010253906250e+00,1.27153282165527344e+01,1.81759536266326904e+00,1.20271396636962891e+00,7.61126613616943359e+00,1.14158678054809570e+00,1.15737419128417969e+01,1.18635213375091553e+00,1.03873901367187500e+01],"tree_param":{"num_feature":"600","num_nodes":"13","size_leaf_vector":"0"}},{"base_weights":[-4.50815740293819545e-09,7.25156188011169434e-01,-5.27038633823394775e-01,-8.71211960911750793e-02,8.07056128978729248e-01,-6.22879981994628906e-01,1.72329053282737732e-01,8.48537445068359375e-01,2.25550562143325806e-01,-2.30146534740924835e-02,-6.76326394081115723e-01,-2.10977599024772644e-01,-7.19477891921997070e-01],"default_left":[true,true,true,false,true,true,false,false,false,false,true,false,false],"id":19,"leaf_child_counts":[0,1,1,0,2,1,0,0,0,0,2,0,0],"left_children":[1,3,5,-1,7,9,-1,-1,-1,-1,11,-1,-1],"loss_changes":[1.10765933990478516e+01,8.81815910339355469e-01,1.23233461380004883e+00,0.00000000000000000e+00,7.82561302185058594e-02,4.64630603790283203e-01,0.00000000000000000e+00,0.00000000000000000e+00,0.00000000000000000e+00,0.00000000000000000e+00,1.23653888702392578e-01,0.00000000000000000e+00,0.00000000000000000e+00],"parents":[2147483647,0,0,1,1,2,2,4,4,5,5,10,10],"right_children":[2,4,6,-1,8,10,-1,-1,-1,-1,12,-1,-1],"split_conditions":[-3.32557618618011475e-01,-1.51470273733139038e-01,6.01015537977218628e-02,-2.61363602476194501e-04,1.96267254650592804e-02,-1.76225006580352783e-01,5.16987172886729240e-04,2.54561239853501320e-03,6.76651718094944954e-04,-6.90439628669992089e-05,6.59323763102293015e-03,-6.32932817097753286e-04,-2.15843366459012032e-03],"split_indices":[566,437,53,0,484,367,0,0,0,0,573,0,0],"sum_hessian":[2.69822578430175781e+01,1.11983976364135742e+01,1.57838611602783203e+01,1.01985001564025879e+00,1.01785469055175781e+01,1.39777212142944336e+01,1.80614006519317627e+00,9.07218170166015625e+00,1.10636591911315918e+00,1.26053249835968018e+00,1.27171888351440430e+01,1.57894563674926758e+00,1.11382436752319336e+01],"tree_param":{"num_feature":"600","num_nodes":"13","size_leaf_vector":"0"}},{"base_weights":[-2.02061256615593265e-09,6.98945879936218262e-01,-5.14303624629974365e-01,8.05512130260467529e-01,-2.20035120844841003e-01,-6.16269171237945557e-01,2.42985293269157410e-01,-1.41947278752923012e-02,-6.84677362442016602e-01,-2.10610955953598022e-01,-7.18182206153869629e-01],"default_left":[true,true,true,false,false,true,false,false,true,false,false],"id":20,"leaf_child_counts":[0,2,1,0,0,1,0,0,2,0,0],"left_children":[1,3,5,-1,-1,7,-1,-1,9,-1,-1],"loss_changes":[1.03150281906127930e+01,1.36849117279052734e+00,1.42622995376586914e+00,0.00000000000000000e+00,0.00000000000000000e+00,6.01994037628173828e-01,0.00000000000000000e+00,0.00000000000000000e+00,6.02426528930664063e-02,0.00000000000000000e+00,0.00000000000000000e+00],"parents":[2147483647,0,0,1,1,2,2,5,5,8,8],"right_children":[2,4,6,-1,-1,8,-1,-1,10,-1,-1],"split_conditions":[-3.32557618618011475e-01,-2.75959037244319916e-02,6.01015537977218628e-02,2.41653644479811192e-03,-6.60105375573039055e-04,-1.66945531964302063e-01,7.28955899830907583e-04,-4.25841826654504985e-05,-1.37835636734962463e-01,-6.31832866929471493e-04,-2.15454655699431896e-03],"split_indices":[566,207,53,0,0,367,0,0,265,0,0],"sum_hessian":[2.66950702667236328e+01,1.11640090942382813e+01,1.55310611724853516e+01,1.01145820617675781e+01,1.04942739009857178e+00,1.38521480560302734e+01,1.67891335487365723e+00,1.53651058673858643e+00,1.23156375885009766e+01,1.29390513896942139e+00,1.10217323303222656e+01],"tree_param":{"num_feature":"600","num_nodes":"11","size_leaf_vector":"0"}},{"base_weights":[5.92607207750006637e-09,7.18265891075134277e-01,-5.23447394371032715e-01,-4.84823472797870636e-02,7.93910384178161621e-01,-6.21388435363769531e-01,1.98270902037620544e-01,8.40889155864715576e-01,1.91884234547615051e-01,6.45691249519586563e-03,-6.76825404167175293e-01,-7.08382725715637207e-01,-2.25348711013793945e-01],"default_left":[true,true,true,false,true,true,false,false,false,false,true,false,false],"id":21,"leaf_child_counts":[0,1,1,0,2,1,0,0,0,0,2,0,0],"left_children":[1,3,5,-1,7,9,-1,-1,-1,-1,11,-1,-1],"loss_changes":[1.09847068786621094e+01,7.52841949462890625e-01,1.31781387329101563e+00,0.00000000000000000e+00,1.57330989837646484e-01,5.30730724334716797e-01,0.00000000000000000e+00,0.00000000000000000e+00,0.00000000000000000e+00,0.00000000000000000e+00,3.84807586669921875e-02,0.00000000000000000e+00,0.00000000000000000e+00],"parents":[2147483647,0,0,1,1,2,2,4,4,5,5,10,10],"right_children":[2,4,6,-1,8,10,-1,-1,-1,-1,12,-1,-1],"split_conditions":[-3.32557618618011475e-01,1.82785969227552414e-02,6.01015537977218628e-02,-1.45447047543711960e-04,1.96186769753694534e-02,-1.76225006580352783e-01,5.94812736380845308e-04,2.52266740426421165e-03,5.75652695260941982e-04,1.93707383004948497e-05,1.20792731642723083e-01,-2.12514819577336311e-03,-6.76046125590801239e-04],"split_indices":[566,517,53,0,484,367,0,0,0,0,565,0,0],"sum_hessian":[2.72166309356689453e+01,1.13163452148437500e+01,1.59002847671508789e+01,1.04841983318328857e+00,1.02679252624511719e+01,1.41227655410766602e+01,1.77751946449279785e+00,9.15662860870361328e+00,1.11129713058471680e+00,1.21751034259796143e+00,1.29052553176879883e+01,1.15302772521972656e+01,1.37497794628143311e+00],"tree_param":{"num_feature":"600","num_nodes":"13","size_leaf_vector":"0"}},{"base_weights":[5.21059861924300094e-10,7.02720105648040771e-01,-5.01941740512847900e-01,8.07559013366699219e-01,1.01626962423324585e-01,-6.00237548351287842e-01,2.32923448085784912e-01,-5.73979429900646210e-02,-6.53710663318634033e-01,-1.98012456297874451e-01,-6.86284482479095459e-01],"default_left":[true,true,true,false,false,true,false,false,true,false,false],"id":22,"leaf_child_counts":[0,2,1,0,0,1,0,0,2,0,0],"left_children":[1,3,5,-1,-1,7,-1,-1,9,-1,-1],"loss_changes":[9.64989566802978516e+00,6.36285781860351563e-01,1.29259014129638672e+00,0.00000000000000000e+00,0.00000000000000000e+00,3.79185199737548828e-01,0.00000000000000000e+00,0.00000000000000000e+00,5.66630363464355469e-02,0.00000000000000000e+00,0.00000000000000000e+00],"parents":[2147483647,0,0,1,1,2,2,5,5,8,8],"right_children":[2,4,6,-1,-1,8,-1,-1,10,-1,-1],"split_conditions":[-3.32557618618011475e-01,1.96186769753694534e-02,6.01015537977218628e-02,2.42267712019383907e-03,3.04880901239812374e-04,-1.76225006580352783e-01,6.98770338203758001e-04,-1.72193831531330943e-04,-1.37843430042266846e-01,-5.94037352129817009e-04,-2.05885339528322220e-03],"split_indices":[566,484,53,0,0,367,0,0,265,0,0],"sum_hessian":[2.53581619262695313e+01,1.03992185592651367e+01,1.49589424133300781e+01,8.56234359741210938e+00,1.83687484264373779e+00,1.33556823730468750e+01,1.60326015949249268e+00,1.38357031345367432e+00,1.19721126556396484e+01,1.27093899250030518e+00,1.07011737823486328e+01],"tree_param":{"num_feature":"600","num_nodes":"11","size_leaf_vector":"0"}},{"base_weights":[3.29497495954456099e-09,6.93798482418060303e-01,-5.06923556327819824e-01,7.81628370285034180e-01,-1.28185451030731201e-01,-6.03247344493865967e-01,1.55845448374748230e-01,2.82319068908691406e-01,8.32536458969116211e-01,-5.37175573408603668e-02,-6.56335949897766113e-01,-1.88783541321754456e-01,-6.90027117729187012e-01],"default_left":[true,true,true,true,false,true,false,false,false,false,true,false,false],"id":23,"leaf_child_counts":[0,1,1,2,0,1,0,0,0,0,2,0,0],"left_children":[1,3,5,7,-1,9,-1,-1,-1,-1,11,-1,-1],"loss_changes":[9.95191192626953125e+00,9.62647914886474609e-01,1.13781404495239258e+00,4.28862571716308594e-02,0.00000000000000000e+00,3.87200355529785156e-01,0.00000000000000000e+00,0.00000000000000000e+00,0.00000000000000000e+00,0.00000000000000000e+00,7.63406753540039063e-02,0.00000000000000000e+00,0.00000000000000000e+00],"parents":[2147483647,0,0,1,1,2,2,3,3,5,5,10,10],"right_children":[2,4,6,8,-1,10,-1,-1,-1,-1,12,-1,-1],"split_conditions":[-3.32557618618011475e-01,8.51135030388832092e-02,6.01015537977218628e-02,9.13757681846618652e-02,-3.84556362405419350e-04,-1.76225006580352783e-01,4.67536359792575240e-04,8.46957205794751644e-04,2.49760947190225124e-03,-1.61152667715214193e-04,-1.37843430042266846e-01,-5.66350645385682583e-04,-2.07008142024278641e-03],"split_indices":[566,564,53,23,0,367,0,0,0,0,265,0,0],"sum_hessian":[2.62963676452636719e+01,1.09462251663208008e+01,1.53501434326171875e+01,9.93387508392333984e+00,1.01234996318817139e+00,1.34807243347167969e+01,1.86941933631896973e+00,1.52474629878997803e+00,8.40912818908691406e+00,1.36484098434448242e+00,1.21158828735351563e+01,1.25821733474731445e+00,1.08576660156250000e+01],"tree_param":{"num_feature":"600","num_nodes":"13","size_leaf_vector":"0"}},{"base_weights":[1.41427323185894238e-08,6.96118950843811035e-01,-4.95447069406509399e-01,7.73250043392181396e-01,-6.11228728666901588e-03,-5.91605782508850098e-01,2.19104036688804626e-01,-4.10871170461177826e-02,-6.59107029438018799e-01,-1.46261125802993774e-01,-7.00017750263214111e-01],"default_left":[true,true,true,false,false,true,false,false,true,false,false],"id":24,"leaf_child_counts":[0,2,1,0,0,1,0,0,2,0,0],"left_children":[1,3,5,-1,-1,7,-1,-1,9,-1,-1],"loss_changes":[9.31474971771240234e+00,6.12972259521484375e-01,1.21374416351318359e+00,0.00000000000000000e+00,0.00000000000000000e+00,4.99744415283203125e-01,0.00000000000000000e+00,0.00000000000000000e+00,1.61177158355712891e-01,0.00000000000000000e+00,0.00000000000000000e+00],"parents":[2147483647,0,0,1,1,2,2,5,5,8,8],"right_children":[2,4,6,-1,-1,8,-1,-1,10,-1,-1],"split_conditions":[-3.32557618618011475e-01,1.19570326060056686e-02,6.01015537977218628e-02,2.31975014321506023e-03,-1.83368629222968593e-05,-1.66945531964302063e-01,6.57312106341123581e-04,-1.23261357657611370e-04,-1.37835636734962463e-01,-4.38783376011997461e-04,-2.10005324333906174e-03],"split_indices":[566,201,53,0,0,367,0,0,265,0,0],"sum_hessian":[2.50078792572021484e+01,1.02297391891479492e+01,1.47781400680541992e+01,9.12620830535888672e+00,1.10353016853332520e+00,1.31769485473632813e+01,1.60119163990020752e+00,1.61491286754608154e+00,1.15620355606079102e+01,1.19219040870666504e+00,1.03698453903198242e+01],"tree_param":{"num_feature":"600","num_nodes":"11","size_leaf_vector":"0"}},{"base_weights":[1.00979917760923854e-08,7.05706298351287842e-01,-5.02009451389312744e-01,7.82532751560211182e-01,-9.90133825689554214e-03,-6.06321096420288086e-01,2.22690746188163757e-01,-6.47529736161231995e-02,-6.53881728649139404e-01,-1.74101531505584717e-01,-6.88546180725097656e-01],"default_left":[true,true,true,false,false,true,false,false,true,false,false],"id":25,"leaf_child_counts":[0,2,1,0,0,1,0,0,2,0,0],"left_children":[1,3,5,-1,-1,7,-1,-1,9,-1,-1],"loss_changes":[9.83867454528808594e+00,6.42396450042724609e-01,1.36175823211669922e+00,0.00000000000000000e+00,0.00000000000000000e+00,3.29969406127929688e-01,0.00000000000000000e+00,0.00000000000000000e+00,9.92860794067382813e-02,0.00000000000000000e+00,0.00000000000000000e+00],"parents":[2147483647,0,0,1,1,2,2,5,5,8,8],"right_children":[2,4,6,-1,-1,8,-1,-1,10,-1,-1],"split_conditions":[-3.32557618618011475e-01,1.19570326060056686e-02,6.01015537977218628e-02,2.34759831801056862e-03,-2.97040151053806767e-05,-1.76225006580352783e-01,6.68072258122265339e-04,-1.94258929695934057e-04,-1.37843430042266846e-01,-5.22304617334157228e-04,-2.06563854590058327e-03],"split_indices":[566,201,53,0,0,367,0,0,265,0,0],"sum_hessian":[2.57715873718261719e+01,1.05437755584716797e+01,1.52278108596801758e+01,9.43710231781005859e+00,1.10667324066162109e+00,1.34545450210571289e+01,1.77326643466949463e+00,1.27683508396148682e+00,1.21777095794677734e+01,1.22636973857879639e+00,1.09513397216796875e+01],"tree_param":{"num_feature":"600","num_nodes":"11","size_leaf_vector":"0"}},{"base_weights":[1.09762803290891497e-08,6.95784330368041992e-01,-5.18635511398315430e-01,7.99753844738006592e-01,-1.93011224269866943e-01,-6.18976652622222900e-01,2.27838605642318726e-01,2.39457979798316956e-01,8.32158863544464111e-01,-1.04056455194950104e-01,-6.74974143505096436e-01,-2.45172142982482910e-01,-7.08916068077087402e-01],"default_left":[true,true,true,true,false,true,false,false,false,false,true,false,false],"id":26,"leaf_child_counts":[0,1,1,2,0,1,0,0,0,0,2,0,0],"left_children":[1,3,5,7,-1,9,-1,-1,-1,-1,11,-1,-1],"loss_changes":[1.03302927017211914e+01,1.28409719467163086e+00,1.36952733993530273e+00,2.98881530761718750e-03,0.00000000000000000e+00,3.54407310485839844e-01,0.00000000000000000e+00,0.00000000000000000e+00,0.00000000000000000e+00,0.00000000000000000e+00,1.73044204711914063e-02,0.00000000000000000e+00,0.00000000000000000e+00],"parents":[2147483647,0,0,1,1,2,2,3,3,5,5,10,10],"right_children":[2,4,6,8,-1,10,-1,-1,-1,-1,12,-1,-1],"split_conditions":[-3.32557618618011475e-01,-2.75959037244319916e-02,6.01015537977218628e-02,5.68450056016445160e-03,-5.79033687245100737e-04,-1.66945531964302063e-01,6.83515798300504684e-04,7.18373921699821949e-04,2.49647651799023151e-03,-3.12169373501092196e-04,-1.37835636734962463e-01,-7.35516427084803581e-04,-2.12674820795655251e-03],"split_indices":[566,207,53,79,0,367,0,0,0,0,265,0,0],"sum_hessian":[2.66269931793212891e+01,1.12255697250366211e+01,1.54014234542846680e+01,1.01396379470825195e+01,1.08593165874481201e+00,1.37270326614379883e+01,1.67439055442810059e+00,1.01305449008941650e+00,9.12658405303955078e+00,1.62673747539520264e+00,1.21002950668334961e+01,1.48750495910644531e+00,1.06127901077270508e+01],"tree_param":{"num_feature":"600","num_nodes":"13","size_leaf_vector":"0"}},{"base_weights":[8.18543544056637984e-09,7.10060358047485352e-01,-5.01326382160186768e-01,-3.94879048690199852e-03,7.82304763793945313e-01,-6.02156102657318115e-01,1.97424083948135376e-01,-6.06231801211833954e-02,-6.63327634334564209e-01,-1.09795078635215759e-01,-7.06470251083374023e-01],"default_left":[true,true,true,false,false,true,false,false,true,false,false],"id":27,"leaf_child_counts":[0,2,1,0,0,1,0,0,2,0,0],"left_children":[1,3,5,-1,-1,7,-1,-1,9,-1,-1],"loss_changes":[9.86022758483886719e+00,5.94400882720947266e-01,1.26279640197753906e+00,0.00000000000000000e+00,0.00000000000000000e+00,4.37987804412841797e-01,0.00000000000000000e+00,0.00000000000000000e+00,2.29777812957763672e-01,0.00000000000000000e+00,0.00000000000000000e+00],"parents":[2147483647,0,0,1,1,2,2,5,5,8,8],"right_children":[2,4,6,-1,-1,8,-1,-1,10,-1,-1],"split_conditions":[-3.32557618618011475e-01,1.82785969227552414e-02,6.01015537977218628e-02,-1.18463713079108857e-05,2.34691426157951355e-03,-1.66945531964302063e-01,5.92272263020277023e-04,-1.81869545485824347e-04,-1.37835636734962463e-01,-3.29385249642655253e-04,-2.11941078305244446e-03],"split_indices":[566,517,53,0,0,367,0,0,265,0,0],"sum_hessian":[2.56994457244873047e+01,1.04632787704467773e+01,1.52361679077148438e+01,1.04827320575714111e+00,9.41500568389892578e+00,1.34356431961059570e+01,1.80052471160888672e+00,1.56573176383972168e+00,1.18699111938476563e+01,1.11457073688507080e+00,1.07553405761718750e+01],"tree_param":{"num_feature":"600","num_nodes":"11","size_leaf_vector":"0"}},{"base_weights":[2.01803658228527638e-08,6.68352425098419189e-01,-4.90753978490829468e-01,-1.77901029586791992e-01,7.76766955852508545e-01,-5.81227540969848633e-01,1.55384927988052368e-01,8.16838860511779785e-01,2.31630295515060425e-01,2.64151152223348618e-02,-6.36835157871246338e-01,-1.23992897570133209e-01,-6.75435960292816162e-01,-7.13678419589996338e-01,-2.36434519290924072e-01],"default_left":[true,true,true,false,true,true,false,false,false,false,true,false,true,false,false],"id":28,"leaf_child_counts":[0,1,1,0,2,1,0,0,0,0,1,0,2,0,0],"left_children":[1,3,5,-1,7,9,-1,-1,-1,-1,11,-1,13,-1,-1],"loss_changes":[8.78888320922851563e+00,1.17904949188232422e+00,9.93534803390502930e-01,0.00000000000000000e+00,3.45501899719238281e-02,4.81897830963134766e-01,0.00000000000000000e+00,0.00000000000000000e+00,0.00000000000000000e+00,0.00000000000000000e+00,1.66666030883789063e-01,0.00000000000000000e+00,2.49910354614257813e-02,0.00000000000000000e+00,0.00000000000000000e+00],"parents":[2147483647,0,0,1,1,2,2,4,4,5,5,10,10,12,12],"right_children":[2,4,6,-1,8,10,-1,-1,-1,-1,12,-1,14,-1,-1],"split_conditions":[-3.32557618618011475e-01,6.71594683080911636e-03,6.01015537977218628e-02,-5.33703074324876070e-04,-4.29073423147201538e-02,-1.76225006580352783e-01,4.66154800960794091e-04,2.45051668025553226e-03,6.94890914019197226e-04,7.92453429312445223e-05,-1.37843430042266846e-01,-3.71978705516085029e-04,1.14967569708824158e-01,-2.14103516191244125e-03,-7.09303538314998150e-04],"split_indices":[566,243,53,0,325,367,0,0,0,0,265,0,485,0,0],"sum_hessian":[2.47956542968750000e+01,1.03450107574462891e+01,1.44506425857543945e+01,1.10202014446258545e+00,9.24299049377441406e+00,1.27638816833496094e+01,1.68676137924194336e+00,8.14579772949218750e+00,1.09719252586364746e+00,1.11415147781372070e+00,1.16497297286987305e+01,1.11032903194427490e+00,1.05394010543823242e+01,9.11931133270263672e+00,1.42008996009826660e+00],"tree_param":{"num_feature":"600","num_nodes":"15","size_leaf_vector":"0"}},{"base_weights":[-5.69153169038827400e-09,6.68147265911102295e-01,-4.70318466424942017e-01,-5.34508414566516876e-02,7.70977854728698730e-01,-5.73420345783233643e-01,2.12706193327903748e-01,6.29934249445796013e-03,-6.42203807830810547e-01,-1.51704564690589905e-01,-6.81053459644317627e-01],"default_left":[true,true,true,false,false,true,false,false,true,false,false],"id":29,"leaf_child_counts":[0,2,1,0,0,1,0,0,2,0,0],"left_children":[1,3,5,-1,-1,7,-1,-1,9,-1,-1],"loss_changes":[8.10786247253417969e+00,8.32128524780273438e-01,1.18831419944763184e+00,0.00000000000000000e+00,0.00000000000000000e+00,5.39449214935302734e-01,0.00000000000000000e+00,0.00000000000000000e+00,1.25589370727539063e-01,0.00000000000000000e+00,0.00000000000000000e+00],"parents":[2147483647,0,0,1,1,2,2,5,5,8,8],"right_children":[2,4,6,-1,-1,8,-1,-1,10,-1,-1],"split_conditions":[-3.32557618618011475e-01,-4.31143352761864662e-03,6.01015537977218628e-02,-1.60352530656382442e-04,2.31293356046080589e-03,-1.66945531964302063e-01,6.38118595816195011e-04,1.88980284292483702e-05,-1.37835636734962463e-01,-4.55113709904253483e-04,-2.04316037707030773e-03],"split_indices":[566,79,53,0,0,367,0,0,265,0,0],"sum_hessian":[2.38013324737548828e+01,9.65894412994384766e+00,1.41423883438110352e+01,1.26465094089508057e+00,8.39429283142089844e+00,1.24270124435424805e+01,1.71537590026855469e+00,1.41442251205444336e+00,1.10125904083251953e+01,1.16820681095123291e+00,9.84438323974609375e+00],"tree_param":{"num_feature":"600","num_nodes":"11","size_leaf_vector":"0"}},{"base_weights":[-1.67920859439618653e-08,6.81203663349151611e-01,-5.10845303535461426e-01,7.85601079463958740e-01,-2.08053395152091980e-01,-6.14285469055175781e-01,2.08926931023597717e-01,2.22806259989738464e-01,8.23309957981109619e-01,-1.15703426301479340e-01,-6.66942894458770752e-01,-1.72662347555160522e-01,-7.03365027904510498e-01],"default_left":[true,true,true,true,false,true,false,false,false,false,true,false,false],"id":30,"leaf_child_counts":[0,1,1,2,0,1,0,0,0,0,2,0,0],"left_children":[1,3,5,7,-1,9,-1,-1,-1,-1,11,-1,-1],"loss_changes":[1.00574188232421875e+01,1.31327438354492188e+00,1.35800743103027344e+00,5.62391281127929688e-02,0.00000000000000000e+00,3.08620452880859375e-01,0.00000000000000000e+00,0.00000000000000000e+00,0.00000000000000000e+00,0.00000000000000000e+00,1.14046573638916016e-01,0.00000000000000000e+00,0.00000000000000000e+00],"parents":[2147483647,0,0,1,1,2,2,3,3,5,5,10,10],"right_children":[2,4,6,8,-1,10,-1,-1,-1,-1,12,-1,-1],"split_conditions":[-3.32557618618011475e-01,-2.75959037244319916e-02,6.01015537977218628e-02,-9.95166450738906860e-02,-6.24160165898501873e-04,-1.66945531964302063e-01,6.26780791208148003e-04,6.68418768327683210e-04,2.46992986649274826e-03,-3.47110268194228411e-04,-1.37835636734962463e-01,-5.17987064085900784e-04,-2.11009499616920948e-03],"split_indices":[566,207,53,384,0,367,0,0,0,0,265,0,0],"sum_hessian":[2.69014854431152344e+01,1.13855543136596680e+01,1.55159311294555664e+01,1.02936592102050781e+01,1.09189510345458984e+00,1.36944284439086914e+01,1.82150280475616455e+00,1.08022224903106689e+00,9.21343708038330078e+00,1.61358952522277832e+00,1.20808391571044922e+01,1.22308588027954102e+00,1.08577527999877930e+01],"tree_param":{"num_feature":"600","num_nodes":"13","size_leaf_vector":"0"}},{"base_weights":[-1.21811771780500067e-09,6.66650176048278809e-01,-4.94427055120468140e-01,7.70683228969573975e-01,-2.04303815960884094e-01,-5.93111813068389893e-01,2.16949984431266785e-01,8.16946387290954590e-01,2.09521427750587463e-01,-2.86557823419570923e-02,-6.44996702671051025e-01,-1.76443368196487427e-01,-6.87219381332397461e-01],"default_left":[true,true,true,true,false,true,false,false,false,false,true,false,false],"id":31,"leaf_child_counts":[0,1,1,2,0,1,0,0,0,0,2,0,0],"left_children":[1,3,5,7,-1,9,-1,-1,-1,-1,11,-1,-1],"loss_changes":[9.04127788543701172e+00,1.21582269668579102e+00,1.23432230949401855e+00,1.05160713195800781e-01,0.00000000000000000e+00,3.94420146942138672e-01,0.00000000000000000e+00,0.00000000000000000e+00,0.00000000000000000e+00,0.00000000000000000e+00,1.33266448974609375e-01,0.00000000000000000e+00,0.00000000000000000e+00],"parents":[2147483647,0,0,1,1,2,2,3,3,5,5,10,10],"right_children":[2,4,6,8,-1,10,-1,-1,-1,-1,12,-1,-1],"split_conditions":[-3.32557618618011475e-01,-2.75959037244319916e-02,6.01015537977218628e-02,2.08982042968273163e-02,-6.12911477219313383e-04,-1.76225006580352783e-01,6.50849950034171343e-04,2.45083915069699287e-03,6.28564273938536644e-04,-8.59673455124720931e-05,6.59323763102293015e-03,-5.29330107383430004e-04,-2.06165807321667671e-03],"split_indices":[566,207,53,484,0,367,0,0,0,0,573,0,0],"sum_hessian":[2.54302368164062500e+01,1.06807489395141602e+01,1.47494888305664063e+01,9.64393520355224609e+00,1.03681361675262451e+00,1.30986461639404297e+01,1.65084278583526611e+00,8.48832893371582031e+00,1.15560579299926758e+00,1.23334634304046631e+00,1.18652992248535156e+01,1.40893721580505371e+00,1.04563617706298828e+01],"tree_param":{"num_feature":"600","num_nodes":"13","size_leaf_vector":"0"}},{"base_weights":[1.30653055041562993e-09,6.85372114181518555e-01,-5.06728529930114746e-01,-1.39113008975982666e-01,7.76965379714965820e-01,-6.08721196651458740e-01,2.30697870254516602e-01,2.37779915332794189e-01,8.14351201057434082e-01,-3.79084236919879913e-02,-6.71648561954498291e-01,-2.27574065327644348e-01,-7.03553259372711182e-01],"default_left":[true,true,true,false,true,true,false,false,false,false,true,false,false],"id":32,"leaf_child_counts":[0,1,1,0,2,1,0,0,0,0,2,0,0],"left_children":[1,3,5,-1,7,9,-1,-1,-1,-1,11,-1,-1],"loss_changes":[9.96131515502929688e+00,1.02879762649536133e+00,1.38070011138916016e+00,0.00000000000000000e+00,3.06181907653808594e-02,5.04767417907714844e-01,0.00000000000000000e+00,0.00000000000000000e+00,0.00000000000000000e+00,0.00000000000000000e+00,2.74167060852050781e-02,0.00000000000000000e+00,0.00000000000000000e+00],"parents":[2147483647,0,0,1,1,2,2,4,4,5,5,10,10],"right_children":[2,4,6,-1,8,10,-1,-1,-1,-1,12,-1,-1],"split_conditions":[-3.32557618618011475e-01,-1.51470273733139038e-01,6.01015537977218628e-02,-4.17339033447206020e-04,-9.95166450738906860e-02,-1.66945531964302063e-01,6.92093628458678722e-04,7.13339773938059807e-04,2.44305352680385113e-03,-1.13725269329734147e-04,-1.37835636734962463e-01,-6.82722195051610470e-04,-2.11065984331071377e-03],"split_indices":[566,437,53,0,384,367,0,0,0,0,265,0,0],"sum_hessian":[2.66823596954345703e+01,1.11920661926269531e+01,1.54902935028076172e+01,1.06715536117553711e+00,1.01249113082885742e+01,1.37614889144897461e+01,1.72880423069000244e+00,1.13376164436340332e+00,8.99114990234375000e+00,1.52556145191192627e+00,1.22359275817871094e+01,1.36531746387481689e+00,1.08706102371215820e+01],"tree_param":{"num_feature":"600","num_nodes":"13","size_leaf_vector":"0"}},{"base_weights":[4.56955255856428266e-08,6.65195584297180176e-01,-4.95674699544906616e-01,7.62632429599761963e-01,-1.83173939585685730e-01,-5.91872692108154297e-01,1.55484035611152649e-01,8.04285764694213867e-01,1.89534008502960205e-01,-7.37394765019416809e-02,-6.52910053730010986e-01,-1.39254778623580933e-01,-6.91803276538848877e-01],"default_left":[true,true,true,true,false,true,false,false,false,false,true,false,false],"id":33,"leaf_child_counts":[0,1,1,2,0,1,0,0,0,0,2,0,0],"left_children":[1,3,5,7,-1,9,-1,-1,-1,-1,11,-1,-1],"loss_changes":[9.12592601776123047e+00,1.11659955978393555e+00,1.08548378944396973e+00,1.05233192443847656e-01,0.00000000000000000e+00,3.95445823669433594e-01,0.00000000000000000e+00,0.00000000000000000e+00,0.00000000000000000e+00,0.00000000000000000e+00,1.51803016662597656e-01,0.00000000000000000e+00,0.00000000000000000e+00],"parents":[2147483647,0,0,1,1,2,2,3,3,5,5,10,10],"right_children":[2,4,6,8,-1,10,-1,-1,-1,-1,12,-1,-1],"split_conditions":[-3.32557618618011475e-01,-2.75959037244319916e-02,6.01015537977218628e-02,2.67303548753261566e-02,-5.49521821085363626e-04,-1.66945531964302063e-01,4.66452096588909626e-04,2.41285725496709347e-03,5.68602059502154589e-04,-2.21218433580361307e-04,-1.37835636734962463e-01,-4.17764327721670270e-04,-2.07540974952280521e-03],"split_indices":[566,207,53,492,0,367,0,0,0,0,265,0,0],"sum_hessian":[2.56777534484863281e+01,1.08179988861083984e+01,1.48597545623779297e+01,9.79417896270751953e+00,1.02381956577301025e+00,1.30263700485229492e+01,1.83338439464569092e+00,8.75449562072753906e+00,1.03968369960784912e+00,1.60552430152893066e+00,1.14208459854125977e+01,1.12631058692932129e+00,1.02945346832275391e+01],"tree_param":{"num_feature":"600","num_nodes":"13","size_leaf_vector":"0"}},{"base_weights":[2.04847356854997997e-08,6.66869044303894043e-01,-4.82088327407836914e-01,7.53255486488342285e-01,-1.00539401173591614e-01,-5.79598426818847656e-01,2.22683414816856384e-01,7.96916306018829346e-01,1.86562106013298035e-01,-6.41361027956008911e-02,-6.42940521240234375e-01,-1.37240067124366760e-01,-6.85145556926727295e-01],"default_left":[true,true,true,true,false,true,false,false,false,false,true,false,false],"id":34,"leaf_child_counts":[0,1,1,2,0,1,0,0,0,0,2,0,0],"left_children":[1,3,5,7,-1,9,-1,-1,-1,-1,11,-1,-1],"loss_changes":[8.59250926971435547e+00,8.19174766540527344e-01,1.19514179229736328e+00,1.03634357452392578e-01,0.00000000000000000e+00,4.12765502929687500e-01,0.00000000000000000e+00,0.00000000000000000e+00,0.00000000000000000e+00,0.00000000000000000e+00,1.67901515960693359e-01,0.00000000000000000e+00,0.00000000000000000e+00],"parents":[2147483647,0,0,1,1,2,2,3,3,5,5,10,10],"right_children":[2,4,6,8,-1,10,-1,-1,-1,-1,12,-1,-1],"split_conditions":[-3.32557618618011475e-01,8.51135030388832092e-02,6.01015537977218628e-02,1.96186769753694534e-02,-3.01618216326460242e-04,-1.66945531964302063e-01,6.68050255626440048e-04,2.39074905402958393e-03,5.59686333872377872e-04,-1.92408304428681731e-04,-1.37835636734962463e-01,-4.11720218835398555e-04,-2.05543660558760166e-03],"split_indices":[566,564,53,484,0,367,0,0,0,0,265,0,0],"sum_hessian":[2.47271595001220703e+01,1.02143869400024414e+01,1.45127735137939453e+01,9.19747734069824219e+00,1.01690888404846191e+00,1.29048986434936523e+01,1.60787522792816162e+00,8.16235351562500000e+00,1.03512382507324219e+00,1.63250458240509033e+00,1.12723932266235352e+01,1.19582140445709229e+00,1.00765724182128906e+01],"tree_param":{"num_feature":"600","num_nodes":"13","size_leaf_vector":"0"}},{"base_weights":[3.53610007941540516e-09,6.60711765289306641e-01,-4.94609296321868896e-01,7.72697091102600098e-01,-2.79765874147415161e-01,-5.89892208576202393e-01,1.79505899548530579e-01,8.14408123493194580e-01,2.09887877106666565e-01,-8.96096155047416687e-02,-6.48544549942016602e-01,-1.17026090621948242e-01,-6.89686119556427002e-01],"default_left":[true,true,true,true,false,true,false,false,false,false,true,false,false],"id":35,"leaf_child_counts":[0,1,1,2,0,1,0,0,0,0,2,0,0],"left_children":[1,3,5,7,-1,9,-1,-1,-1,-1,11,-1,-1],"loss_changes":[9.26594924926757813e+00,1.49462747573852539e+00,1.14742469787597656e+00,8.99467468261718750e-02,0.00000000000000000e+00,3.65607738494873047e-01,0.00000000000000000e+00,0.00000000000000000e+00,0.00000000000000000e+00,0.00000000000000000e+00,1.98423862457275391e-01,0.00000000000000000e+00,0.00000000000000000e+00],"parents":[2147483647,0,0,1,1,2,2,3,3,5,5,10,10],"right_children":[2,4,6,8,-1,10,-1,-1,-1,-1,12,-1,-1],"split_conditions":[-3.32557618618011475e-01,-1.62533864378929138e-01,6.01015537977218628e-02,1.96186769753694534e-02,-8.39297601487487555e-04,-1.66945531964302063e-01,5.38517720997333527e-04,2.44322442449629307e-03,6.29663642030209303e-04,-2.68828851403668523e-04,-1.37835636734962463e-01,-3.51078284438699484e-04,-2.06905836239457130e-03],"split_indices":[566,36,53,484,0,367,0,0,0,0,265,0,0],"sum_hessian":[2.63540802001953125e+01,1.11387834548950195e+01,1.52152976989746094e+01,1.01129989624023438e+01,1.02578449249267578e+00,1.34404878616333008e+01,1.77480947971343994e+00,8.99902057647705078e+00,1.11397814750671387e+00,1.67564678192138672e+00,1.17648410797119141e+01,1.12141871452331543e+00,1.06434221267700195e+01],"tree_param":{"num_feature":"600","num_nodes":"13","size_leaf_vector":"0"}},{"base_weights":[1.09459632469111057e-08,6.66355907917022705e-01,-4.83626753091812134e-01,-1.23634472489356995e-01,7.57864415645599365e-01,-5.75776636600494385e-01,2.03815922141075134e-01,8.10123860836029053e-01,1.38481929898262024e-01,5.75672648847103119e-03,-6.42089605331420898e-01,-1.76661863923072815e-01,-6.81130528450012207e-01],"default_left":[true,true,true,false,true,true,false,false,false,false,true,false,false],"id":36,"leaf_child_counts":[0,1,1,0,2,1,0,0,0,0,2,0,0],"left_children":[1,3,5,-1,7,9,-1,-1,-1,-1,11,-1,-1],"loss_changes":[8.69235324859619141e+00,9.13715839385986328e-01,1.10742497444152832e+00,0.00000000000000000e+00,2.21403598785400391e-01,5.45247554779052734e-01,0.00000000000000000e+00,0.00000000000000000e+00,0.00000000000000000e+00,0.00000000000000000e+00,1.08887195587158203e-01,0.00000000000000000e+00,0.00000000000000000e+00],"parents":[2147483647,0,0,1,1,2,2,4,4,5,5,10,10],"right_children":[2,4,6,-1,8,10,-1,-1,-1,-1,12,-1,-1],"split_conditions":[-3.32557618618011475e-01,-2.40019932389259338e-02,6.01015537977218628e-02,-3.70903406292200089e-04,1.96267254650592804e-02,-1.66945531964302063e-01,6.11447787377983332e-04,2.43037170730531216e-03,4.15445800172165036e-04,1.72701802512165159e-05,6.59323763102293015e-03,-5.29985583852976561e-04,-2.04339157789945602e-03],"split_indices":[566,507,53,0,484,367,0,0,0,0,573,0,0],"sum_hessian":[2.49724750518798828e+01,1.03433113098144531e+01,1.46291637420654297e+01,1.03729569911956787e+00,9.30601596832275391e+00,1.30431947708129883e+01,1.58596909046173096e+00,8.29793548583984375e+00,1.00807976722717285e+00,1.42856359481811523e+00,1.16146316528320313e+01,1.32644188404083252e+00,1.02881898880004883e+01],"tree_param":{"num_feature":"600","num_nodes":"13","size_leaf_vector":"0"}},{"base_weights":[-2.01987013781490532e-08,6.73870921134948730e-01,-4.83901560306549072e-01,-1.99010651558637619e-02,7.56796658039093018e-01,-5.75667083263397217e-01,1.67839050292968750e-01,2.37964183092117310e-01,8.00720989704132080e-01,-8.35963338613510132e-02,-6.36039555072784424e-01,-1.30754813551902771e-01,-6.78104519844055176e-01],"default_left":[true,true,true,false,true,true,false,false,false,false,true,false,false],"id":37,"leaf_child_counts":[0,1,1,0,2,1,0,0,0,0,2,0,0],"left_children":[1,3,5,-1,7,9,-1,-1,-1,-1,11,-1,-1],"loss_changes":[8.78444862365722656e+00,6.62830829620361328e-01,1.03437328338623047e+00,0.00000000000000000e+00,3.92394065856933594e-02,3.61846446990966797e-01,0.00000000000000000e+00,0.00000000000000000e+00,0.00000000000000000e+00,0.00000000000000000e+00,1.72600269317626953e-01,0.00000000000000000e+00,0.00000000000000000e+00],"parents":[2147483647,0,0,1,1,2,2,4,4,5,5,10,10],"right_children":[2,4,6,-1,8,10,-1,-1,-1,-1,12,-1,-1],"split_conditions":[-3.32557618618011475e-01,-4.31143352761864662e-03,6.01015537977218628e-02,-5.97031976212747395e-05,9.18849557638168335e-02,-1.66945531964302063e-01,5.03517163451761007e-04,7.13892572093755007e-04,2.40216287784278393e-03,-2.50789016718044877e-04,-1.37835636734962463e-01,-3.92264453694224358e-04,-2.03431351110339165e-03],"split_indices":[566,79,53,0,23,367,0,0,0,0,265,0,0],"sum_hessian":[2.49389553070068359e+01,1.02593812942504883e+01,1.46795740127563477e+01,1.17650842666625977e+00,9.08287334442138672e+00,1.29700984954833984e+01,1.70947575569152832e+00,1.20984292030334473e+00,7.87303018569946289e+00,1.67801010608673096e+00,1.12920885086059570e+01,1.18355953693389893e+00,1.01085290908813477e+01],"tree_param":{"num_feature":"600","num_nodes":"13","size_leaf_vector":"0"}},{"base_weights":[1.58757593737846037e-08,6.72395944595336914e-01,-4.78730827569961548e-01,-1.49572774767875671e-01,7.67962396144866943e-01,-5.75449585914611816e-01,2.06739440560340881e-01,-3.60086821019649506e-02,-6.29160940647125244e-01,-1.41581580042839050e-01,-6.68377518653869629e-01],"default_left":[true,true,true,false,false,true,false,false,true,false,false],"id":38,"leaf_child_counts":[0,2,1,0,0,1,0,0,2,0,0],"left_children":[1,3,5,-1,-1,7,-1,-1,9,-1,-1],"loss_changes":[8.68892955780029297e+00,9.96684074401855469e-01,1.16429257392883301e+00,0.00000000000000000e+00,0.00000000000000000e+00,3.85351657867431641e-01,0.00000000000000000e+00,0.00000000000000000e+00,1.49087429046630859e-01,0.00000000000000000e+00,0.00000000000000000e+00],"parents":[2147483647,0,0,1,1,2,2,5,5,8,8],"right_children":[2,4,6,-1,-1,8,-1,-1,10,-1,-1],"split_conditions":[-3.32557618618011475e-01,6.71594683080911636e-03,6.01015537977218628e-02,-4.48718317784368992e-04,2.30388715863227844e-03,-1.76225006580352783e-01,6.20218343101441860e-04,-1.08026048110332340e-04,-1.37843430042266846e-01,-4.24744735937565565e-04,-2.00513261370360851e-03],"split_indices":[566,243,53,0,0,367,0,0,265,0,0],"sum_hessian":[2.49929161071777344e+01,1.02258195877075195e+01,1.47670955657958984e+01,1.00621652603149414e+00,9.21960353851318359e+00,1.30817813873291016e+01,1.68531429767608643e+00,1.33584618568420410e+00,1.17459354400634766e+01,1.21761357784271240e+00,1.05283222198486328e+01],"tree_param":{"num_feature":"600","num_nodes":"11","size_leaf_vector":"0"}},{"base_weights":[5.60193917920059903e-08,6.81165277957916260e-01,-4.85201150178909302e-01,7.84461081027984619e-01,9.78418886661529541e-02,-5.86922109127044678e-01,1.77519381046295166e-01,-5.50731718540191650e-02,-6.50967776775360107e-01,-1.79331853985786438e-01,-6.85756206512451172e-01],"default_left":[true,true,true,false,false,true,false,false,true,false,false],"id":39,"leaf_child_counts":[0,2,1,0,0,1,0,0,2,0,0],"left_children":[1,3,5,-1,-1,7,-1,-1,9,-1,-1],"loss_changes":[9.04181098937988281e+00,6.08988285064697266e-01,1.18124914169311523e+00,0.00000000000000000e+00,0.00000000000000000e+00,4.43864345550537109e-01,0.00000000000000000e+00,0.00000000000000000e+00,8.17427635192871094e-02,0.00000000000000000e+00,0.00000000000000000e+00],"parents":[2147483647,0,0,1,1,2,2,5,5,8,8],"right_children":[2,4,6,-1,-1,8,-1,-1,10,-1,-1],"split_conditions":[-3.32557618618011475e-01,1.96186769753694534e-02,6.01015537977218628e-02,2.35338322818279266e-03,2.93525663437321782e-04,-1.66945531964302063e-01,5.32558129634708166e-04,-1.65219520567916334e-04,-1.37835636734962463e-01,-5.37995540071278811e-04,-2.05726874992251396e-03],"split_indices":[566,484,53,0,0,367,0,0,265,0,0],"sum_hessian":[2.53577976226806641e+01,1.03806743621826172e+01,1.49771223068237305e+01,8.52605342864990234e+00,1.85462069511413574e+00,1.30833358764648438e+01,1.89378666877746582e+00,1.60607182979583740e+00,1.14772644042968750e+01,1.21122932434082031e+00,1.02660350799560547e+01],"tree_param":{"num_feature":"600","num_nodes":"11","size_leaf_vector":"0"}},{"base_weights":[-1.54894301829244796e-08,7.10489690303802490e-01,-5.16598045825958252e-01,1.37221370823681355e-03,7.85584092140197754e-01,-6.06609940528869629e-01,1.62161126732826233e-01,-3.23455482721328735e-02,-6.55096411705017090e-01,-6.88660502433776855e-01,-1.88747078180313110e-01],"default_left":[true,true,true,false,false,true,false,false,true,false,false],"id":40,"leaf_child_counts":[0,2,1,0,0,1,0,0,2,0,0],"left_children":[1,3,5,-1,-1,7,-1,-1,9,-1,-1],"loss_changes":[1.07665042877197266e+01,6.56530380249023438e-01,1.13604497909545898e+00,0.00000000000000000e+00,0.00000000000000000e+00,4.02223587036132813e-01,0.00000000000000000e+00,0.00000000000000000e+00,8.86940956115722656e-02,0.00000000000000000e+00,0.00000000000000000e+00],"parents":[2147483647,0,0,1,1,2,2,5,5,8,8],"right_children":[2,4,6,-1,-1,8,-1,-1,10,-1,-1],"split_conditions":[-3.32557618618011475e-01,6.85333013534545898e-02,6.01015537977218628e-02,4.11664132116129622e-06,2.35675228759646416e-03,-1.76225006580352783e-01,4.86483389977365732e-04,-9.70366454566828907e-05,1.40115052461624146e-01,-2.06598150543868542e-03,-5.66241214983165264e-04],"split_indices":[566,23,53,0,0,367,0,0,129,0,0],"sum_hessian":[2.73335208892822266e+01,1.13492708206176758e+01,1.59842491149902344e+01,1.18428909778594971e+00,1.01649818420410156e+01,1.42065773010253906e+01,1.77767205238342285e+00,1.23590254783630371e+00,1.29706745147705078e+01,1.16551275253295898e+01,1.31554687023162842e+00],"tree_param":{"num_feature":"600","num_nodes":"11","size_leaf_vector":"0"}},{"base_weights":[3.07904919338852778e-08,6.87084615230560303e-01,-4.94695693254470825e-01,-4.82099782675504684e-03,7.63610661029815674e-01,-5.90340197086334229e-01,2.05626294016838074e-01,-1.13982938230037689e-01,-6.43833816051483154e-01,-6.78945541381835938e-01,-1.60323262214660645e-01],"default_left":[true,true,true,false,false,true,false,false,true,false,false],"id":41,"leaf_child_counts":[0,2,1,0,0,1,0,0,2,0,0],"left_children":[1,3,5,-1,-1,7,-1,-1,9,-1,-1],"loss_changes":[9.47560310363769531e+00,6.21578216552734375e-01,1.20703911781311035e+00,0.00000000000000000e+00,0.00000000000000000e+00,2.96583652496337891e-01,0.00000000000000000e+00,0.00000000000000000e+00,1.09097003936767578e-01,0.00000000000000000e+00,0.00000000000000000e+00],"parents":[2147483647,0,0,1,1,2,2,5,5,8,8],"right_children":[2,4,6,-1,-1,8,-1,-1,10,-1,-1],"split_conditions":[-3.32557618618011475e-01,5.77978454530239105e-02,6.01015537977218628e-02,-1.44629939313745126e-05,2.29083211161196232e-03,-1.66945531964302063e-01,6.16878911387175322e-04,-3.41948820278048515e-04,1.40115052461624146e-01,-2.03683669678866863e-03,-4.80969785712659359e-04],"split_indices":[566,459,53,0,0,367,0,0,129,0,0],"sum_hessian":[2.58777980804443359e+01,1.06697044372558594e+01,1.52080926895141602e+01,1.15588045120239258e+00,9.51382446289062500e+00,1.35188407897949219e+01,1.68925249576568604e+00,1.68094110488891602e+00,1.18378992080688477e+01,1.06596164703369141e+01,1.17828345298767090e+00],"tree_param":{"num_feature":"600","num_nodes":"11","size_leaf_vector":"0"}},{"base_weights":[5.32465049829511372e-09,6.49225831031799316e-01,-4.80291783809661865e-01,7.52175152301788330e-01,-2.27277353405952454e-01,-5.82303404808044434e-01,2.45533600449562073e-01,1.85679093003273010e-01,7.93021261692047119e-01,-6.12319707870483398e-02,-6.40416085720062256e-01,-1.45413890480995178e-01,-6.78444981575012207e-01],"default_left":[true,true,true,true,false,true,false,false,false,false,true,false,false],"id":42,"leaf_child_counts":[0,1,1,2,0,1,0,0,0,0,2,0,0],"left_children":[1,3,5,7,-1,9,-1,-1,-1,-1,11,-1,-1],"loss_changes":[8.59645462036132813e+00,1.22876167297363281e+00,1.31625866889953613e+00,1.00865840911865234e-01,0.00000000000000000e+00,3.90470981597900391e-01,0.00000000000000000e+00,0.00000000000000000e+00,0.00000000000000000e+00,0.00000000000000000e+00,1.39671325683593750e-01,0.00000000000000000e+00,0.00000000000000000e+00],"parents":[2147483647,0,0,1,1,2,2,3,3,5,5,10,10],"right_children":[2,4,6,8,-1,10,-1,-1,-1,-1,12,-1,-1],"split_conditions":[-3.32557618618011475e-01,-2.75959037244319916e-02,6.01015537977218628e-02,-9.95166450738906860e-02,-6.81832083500921726e-04,-1.66945531964302063e-01,7.36600835807621479e-04,5.57037303224205971e-04,2.37906374968588352e-03,-1.83695912710390985e-04,-1.37835636734962463e-01,-4.36241680290549994e-04,-2.03533493913710117e-03],"split_indices":[566,207,53,384,0,367,0,0,0,0,265,0,0],"sum_hessian":[2.55688343048095703e+01,1.07227783203125000e+01,1.48460559844970703e+01,9.72265338897705078e+00,1.00012445449829102e+00,1.31899948120117188e+01,1.65606045722961426e+00,1.02686357498168945e+00,8.69579029083251953e+00,1.52948057651519775e+00,1.16605148315429688e+01,1.17606461048126221e+00,1.04844503402709961e+01],"tree_param":{"num_feature":"600","num_nodes":"13","size_leaf_vector":"0"}},{"base_weights":[4.27549942116911552e-08,6.68672263622283936e-01,-4.85805034637451172e-01,-5.46548739075660706e-02,7.59303390979766846e-01,-5.84691762924194336e-01,2.23686262965202332e-01,8.00447285175323486e-01,2.54291504621505737e-01,-2.14086472988128662e-02,-6.35235428810119629e-01,-1.68028444051742554e-01,-6.70503556728363037e-01],"default_left":[true,true,true,false,true,true,false,false,false,false,true,false,false],"id":43,"leaf_child_counts":[0,1,1,0,2,1,0,0,0,0,2,0,0],"left_children":[1,3,5,-1,7,9,-1,-1,-1,-1,11,-1,-1],"loss_changes":[8.94998836517333984e+00,8.01538944244384766e-01,1.25038051605224609e+00,0.00000000000000000e+00,1.19218826293945313e-02,3.93028736114501953e-01,0.00000000000000000e+00,0.00000000000000000e+00,0.00000000000000000e+00,0.00000000000000000e+00,1.02723598480224609e-01,0.00000000000000000e+00,0.00000000000000000e+00],"parents":[2147483647,0,0,1,1,2,2,4,4,5,5,10,10],"right_children":[2,4,6,-1,8,10,-1,-1,-1,-1,12,-1,-1],"split_conditions":[-3.32557618618011475e-01,-4.31143352761864662e-03,6.01015537977218628e-02,-1.63964621606282890e-04,-4.49029803276062012e-02,-1.76225006580352783e-01,6.71058776788413525e-04,2.40134191699326038e-03,7.62874493375420570e-04,-6.42259401502087712e-05,-1.37843430042266846e-01,-5.04085328429937363e-04,-2.01151077635586262e-03],"split_indices":[566,79,53,0,29,367,0,0,0,0,265,0,0],"sum_hessian":[2.55516204833984375e+01,1.05937461853027344e+01,1.49578742980957031e+01,1.22377252578735352e+00,9.36997413635253906e+00,1.32824993133544922e+01,1.67537438869476318e+00,8.12316322326660156e+00,1.24681043624877930e+00,1.21092498302459717e+00,1.20715742111206055e+01,1.25188004970550537e+00,1.08196945190429688e+01],"tree_param":{"num_feature":"600","num_nodes":"13","size_leaf_vector":"0"}},{"base_weights":[-1.80586177123132074e-08,6.69527411460876465e-01,-4.90166366100311279e-01,7.69780635833740234e-01,-2.01251626014709473e-01,-5.85914433002471924e-01,1.87902763485908508e-01,-6.93443417549133301e-02,-6.44830107688903809e-01,-6.71799182891845703e-01,-2.18004152178764343e-01],"default_left":[true,true,true,false,false,true,false,false,true,false,false],"id":44,"leaf_child_counts":[0,2,1,0,0,1,0,0,2,0,0],"left_children":[1,3,5,-1,-1,7,-1,-1,9,-1,-1],"loss_changes":[9.18012523651123047e+00,1.18707084655761719e+00,1.15858817100524902e+00,0.00000000000000000e+00,0.00000000000000000e+00,3.93357753753662109e-01,0.00000000000000000e+00,0.00000000000000000e+00,8.87870788574218750e-04,0.00000000000000000e+00,0.00000000000000000e+00],"parents":[2147483647,0,0,1,1,2,2,5,5,8,8],"right_children":[2,4,6,-1,-1,8,-1,-1,10,-1,-1],"split_conditions":[-3.32557618618011475e-01,-2.75959037244319916e-02,6.01015537977218628e-02,2.30934191495180130e-03,-6.03754888288676739e-04,-1.66945531964302063e-01,5.63708308618515730e-04,-2.08033030503429472e-04,1.41810476779937744e-01,-2.01539765112102032e-03,-6.54012488666921854e-04],"split_indices":[566,207,53,0,0,367,0,0,129,0,0],"sum_hessian":[2.59728507995605469e+01,1.08232498168945313e+01,1.51496000289916992e+01,9.80982589721679688e+00,1.01342391967773438e+00,1.33941602706909180e+01,1.75544035434722900e+00,1.59410750865936279e+00,1.18000526428222656e+01,1.05589408874511719e+01,1.24111115932464600e+00],"tree_param":{"num_feature":"600","num_nodes":"11","size_leaf_vector":"0"}},{"base_weights":[-1.92366123030751623e-08,6.69445872306823730e-01,-4.83112663030624390e-01,-1.71253576874732971e-01,7.68933892250061035e-01,-5.76351702213287354e-01,1.77101626992225647e-01,-2.37168986350297928e-02,-6.26873493194580078e-01,-1.72518491744995117e-01,-6.60405814647674561e-01],"default_left":[true,true,true,false,false,true,false,false,true,false,false],"id":45,"leaf_child_counts":[0,2,1,0,0,1,0,0,2,0,0],"left_children":[1,3,5,-1,-1,7,-1,-1,9,-1,-1],"loss_changes":[8.85614109039306641e+00,1.09169673919677734e+00,1.08114743232727051e+00,0.00000000000000000e+00,0.00000000000000000e+00,3.80810737609863281e-01,0.00000000000000000e+00,0.00000000000000000e+00,8.32986831665039063e-02,0.00000000000000000e+00,0.00000000000000000e+00],"parents":[2147483647,0,0,1,1,2,2,5,5,8,8],"right_children":[2,4,6,-1,-1,8,-1,-1,10,-1,-1],"split_conditions":[-3.32557618618011475e-01,6.71594683080911636e-03,6.01015537977218628e-02,-5.13760722242295742e-04,2.30680173262953758e-03,-1.76225006580352783e-01,5.31304860487580299e-04,-7.11506945663131773e-05,-1.37843430042266846e-01,-5.17555454280227423e-04,-1.98121741414070129e-03],"split_indices":[566,243,53,0,0,367,0,0,265,0,0],"sum_hessian":[2.53829746246337891e+01,1.04779958724975586e+01,1.49049797058105469e+01,1.03242146968841553e+00,9.44557380676269531e+00,1.31718091964721680e+01,1.73317074775695801e+00,1.22638499736785889e+00,1.19454240798950195e+01,1.24333691596984863e+00,1.07020874023437500e+01],"tree_param":{"num_feature":"600","num_nodes":"11","size_leaf_vector":"0"}},{"base_weights":[-2.51423273311957018e-08,6.38394176959991455e-01,-4.70272719860076904e-01,-2.15875893831253052e-01,7.49220430850982666e-01,-5.70877969264984131e-01,1.99283272027969360e-01,7.85399556159973145e-01,2.29535326361656189e-01,7.58921215310692787e-03,-6.22718930244445801e-01,-1.96610316634178162e-01,-6.58481776714324951e-01],"default_left":[true,true,true,false,true,true,false,false,false,false,true,false,false],"id":46,"leaf_child_counts":[0,1,1,0,2,1,0,0,0,0,2,0,0],"left_children":[1,3,5,-1,7,9,-1,-1,-1,-1,11,-1,-1],"loss_changes":[8.10242462158203125e+00,1.24557256698608398e+00,1.16058540344238281e+00,0.00000000000000000e+00,1.44519805908203125e-02,4.17640686035156250e-01,0.00000000000000000e+00,0.00000000000000000e+00,0.00000000000000000e+00,0.00000000000000000e+00,6.32882118225097656e-02,0.00000000000000000e+00,0.00000000000000000e+00],"parents":[2147483647,0,0,1,1,2,2,4,4,5,5,10,10],"right_children":[2,4,6,-1,8,10,-1,-1,-1,-1,12,-1,-1],"split_conditions":[-3.32557618618011475e-01,6.71594683080911636e-03,6.01015537977218628e-02,-6.47627690341323614e-04,-2.37613059580326080e-02,-1.76225006580352783e-01,5.97849837504327297e-04,2.35619861632585526e-03,6.88606000039726496e-04,2.27676373469876125e-05,6.59323763102293015e-03,-5.89830975513905287e-04,-1.97544530965387821e-03],"split_indices":[566,243,53,0,157,367,0,0,0,0,573,0,0],"sum_hessian":[2.49883499145507813e+01,1.04478778839111328e+01,1.45404710769653320e+01,1.09092676639556885e+00,9.35695171356201172e+00,1.27691926956176758e+01,1.77127814292907715e+00,8.26992225646972656e+00,1.08702933788299561e+00,1.12043476104736328e+00,1.16487579345703125e+01,1.40507853031158447e+00,1.02436800003051758e+01],"tree_param":{"num_feature":"600","num_nodes":"13","size_leaf_vector":"0"}},{"base_weights":[1.05725330712402865e-08,6.71972095966339111e-01,-4.90977644920349121e-01,-3.66827212274074554e-02,7.43435859680175781e-01,-5.79695940017700195e-01,1.67751774191856384e-01,7.90910661220550537e-01,1.80230349302291870e-01,-5.56005276739597321e-02,-6.37686252593994141e-01,-1.10106348991394043e-01,-6.77925527095794678e-01],"default_left":[true,true,true,false,true,true,false,false,false,false,true,false,false],"id":47,"leaf_child_counts":[0,1,1,0,2,1,0,0,0,0,2,0,0],"left_children":[1,3,5,-1,7,9,-1,-1,-1,-1,11,-1,-1],"loss_changes":[9.20926380157470703e+00,6.24077796936035156e-01,1.03983473777770996e+00,0.00000000000000000e+00,1.44942760467529297e-01,4.03375625610351563e-01,0.00000000000000000e+00,0.00000000000000000e+00,0.00000000000000000e+00,0.00000000000000000e+00,1.99318408966064453e-01,0.00000000000000000e+00,0.00000000000000000e+00],"parents":[2147483647,0,0,1,1,2,2,4,4,5,5,10,10],"right_children":[2,4,6,-1,8,10,-1,-1,-1,-1,12,-1,-1],"split_conditions":[-3.32557618618011475e-01,1.82785969227552414e-02,6.01015537977218628e-02,-1.10048167698550969e-04,1.96186769753694534e-02,-1.66945531964302063e-01,5.03255345392972231e-04,2.37273192033171654e-03,5.40691078640520573e-04,-1.66801590239629149e-04,-1.37835636734962463e-01,-3.30319046042859554e-04,-2.03377660363912582e-03],"split_indices":[566,517,53,0,484,367,0,0,0,0,265,0,0],"sum_hessian":[2.59133510589599609e+01,1.07845439910888672e+01,1.51288070678710938e+01,1.03251695632934570e+00,9.75202655792236328e+00,1.34388313293457031e+01,1.68997609615325928e+00,8.62102508544921875e+00,1.13100194931030273e+00,1.53398740291595459e+00,1.19048433303833008e+01,1.10843062400817871e+00,1.07964134216308594e+01],"tree_param":{"num_feature":"600","num_nodes":"13","size_leaf_vector":"0"}},{"base_weights":[-3.76719899719546447e-09,6.78950965404510498e-01,-4.78245228528976440e-01,7.80545780435204506e-03,7.48680293560028076e-01,-5.72042822837829590e-01,1.49668678641319275e-01,7.84550726413726807e-01,2.17882931232452393e-01,-6.07870221138000488e-02,-6.31850719451904297e-01,-1.68885558843612671e-01,-6.63886725902557373e-01],"default_left":[true,true,true,false,true,true,false,false,false,false,true,false,false],"id":48,"leaf_child_counts":[0,1,1,0,2,1,0,0,0,0,2,0,0],"left_children":[1,3,5,-1,7,9,-1,-1,-1,-1,11,-1,-1],"loss_changes":[8.91090965270996094e+00,5.24929523468017578e-01,1.03393959999084473e+00,0.00000000000000000e+00,2.44798660278320313e-02,3.96281242370605469e-01,0.00000000000000000e+00,0.00000000000000000e+00,0.00000000000000000e+00,0.00000000000000000e+00,7.50665664672851563e-02,0.00000000000000000e+00,0.00000000000000000e+00],"parents":[2147483647,0,0,1,1,2,2,4,4,5,5,10,10],"right_children":[2,4,6,-1,8,10,-1,-1,-1,-1,12,-1,-1],"split_conditions":[-3.32557618618011475e-01,-4.31143352761864662e-03,6.01015537977218628e-02,2.34163744607940316e-05,-5.67334964871406555e-02,-1.66945531964302063e-01,4.49006038252264261e-04,2.35365214757621288e-03,6.53648807201534510e-04,-1.82361065526492894e-04,-1.40326589345932007e-01,-5.06656651850789785e-04,-1.99166010133922100e-03],"split_indices":[566,79,53,0,136,367,0,0,0,0,265,0,0],"sum_hessian":[2.54430904388427734e+01,1.03416614532470703e+01,1.51014280319213867e+01,1.07798540592193604e+00,9.26367568969726563e+00,1.32161788940429688e+01,1.88524985313415527e+00,8.22947978973388672e+00,1.03419578075408936e+00,1.59531462192535400e+00,1.16208639144897461e+01,1.15799307823181152e+00,1.04628705978393555e+01],"tree_param":{"num_feature":"600","num_nodes":"13","size_leaf_vector":"0"}},{"base_weights":[-1.97743013075069030e-08,6.95719659328460693e-01,-4.95048999786376953e-01,1.01769017055630684e-02,7.60092377662658691e-01,-5.91740667819976807e-01,2.43037059903144836e-01,-5.37450909614562988e-02,-6.33994698524475098e-01,-1.95757105946540833e-01,-6.63265109062194824e-01],"default_left":[true,true,true,false,false,true,false,false,true,false,false],"id":49,"leaf_child_counts":[0,2,1,0,0,1,0,0,2,0,0],"left_children":[1,3,5,-1,-1,7,-1,-1,9,-1,-1],"loss_changes":[9.72669887542724609e+00,5.10396003723144531e-01,1.32138347625732422e+00,0.00000000000000000e+00,0.00000000000000000e+00,3.04188728332519531e-01,0.00000000000000000e+00,0.00000000000000000e+00,4.59470748901367188e-02,0.00000000000000000e+00,0.00000000000000000e+00],"parents":[2147483647,0,0,1,1,2,2,5,5,8,8],"right_children":[2,4,6,-1,-1,8,-1,-1,10,-1,-1],"split_conditions":[-3.32557618618011475e-01,-4.31143352761864662e-03,6.01015537977218628e-02,3.05307039525359869e-05,2.28027720004320145e-03,-1.76225006580352783e-01,7.29111197870224714e-04,-1.61235278937965631e-04,-1.37843430042266846e-01,-5.87271351832896471e-04,-1.98979536071419716e-03],"split_indices":[566,79,53,0,0,367,0,0,265,0,0],"sum_hessian":[2.62411918640136719e+01,1.07409648895263672e+01,1.55002269744873047e+01,1.02141416072845459e+00,9.71955013275146484e+00,1.38801574707031250e+01,1.62006950378417969e+00,1.17620337009429932e+00,1.27039537429809570e+01,1.27672064304351807e+00,1.14272336959838867e+01],"tree_param":{"num_feature":"600","num_nodes":"11","size_leaf_vector":"0"}},{"base_weights":[9.51856993225419501e-09,6.74509942531585693e-01,-4.83205050230026245e-01,-4.62589189410209656e-02,7.48436927795410156e-01,-5.84744036197662354e-01,2.31245934963226318e-01,7.89613068103790283e-01,1.89579606056213379e-01,-3.21829095482826233e-02,-6.34989619255065918e-01,-1.94384843111038208e-01,-6.70222103595733643e-01],"default_left":[true,true,true,false,true,true,false,false,false,false,true,false,false],"id":50,"leaf_child_counts":[0,1,1,0,2,1,0,0,0,0,2,0,0],"left_children":[1,3,5,-1,7,9,-1,-1,-1,-1,11,-1,-1],"loss_changes":[9.03887939453125000e+00,6.51392936706542969e-01,1.30737924575805664e+00,0.00000000000000000e+00,9.32278633117675781e-02,3.80210399627685547e-01,0.00000000000000000e+00,0.00000000000000000e+00,0.00000000000000000e+00,0.00000000000000000e+00,7.42321014404296875e-02,0.00000000000000000e+00,0.00000000000000000e+00],"parents":[2147483647,0,0,1,1,2,2,4,4,5,5,10,10],"right_children":[2,4,6,-1,8,10,-1,-1,-1,-1,12,-1,-1],"split_conditions":[-3.32557618618011475e-01,1.82785969227552414e-02,6.01015537977218628e-02,-1.38776755193248391e-04,1.96186769753694534e-02,-1.76225006580352783e-01,6.93737820256501436e-04,2.36883922480046749e-03,5.68738847505301237e-04,-9.65487270150333643e-05,-1.37843430042266846e-01,-5.83154556807130575e-04,-2.01066629961133003e-03],"split_indices":[566,517,53,0,484,367,0,0,0,0,265,0,0],"sum_hessian":[2.57328681945800781e+01,1.05750961303710938e+01,1.51577711105346680e+01,1.01857006549835205e+00,9.55652618408203125e+00,1.34305467605590820e+01,1.72722458839416504e+00,8.51615619659423828e+00,1.04036962985992432e+00,1.25621342658996582e+00,1.21743335723876953e+01,1.38397991657257080e+00,1.07903528213500977e+01],"tree_param":{"num_feature":"600","num_nodes":"13","size_leaf_vector":"0"}},{"base_weights":[-6.84052725574701981e-09,6.56750917434692383e-01,-4.86082941293716431e-01,7.56268858909606934e-01,-1.96547240018844604e-01,-5.81134855747222900e-01,1.71334341168403625e-01,2.22264885902404785e-01,7.89964854717254639e-01,-5.32848313450813293e-02,-6.39449298381805420e-01,-1.57682895660400391e-01,-6.76196575164794922e-01],"default_left":[true,true,true,true,false,true,false,false,false,false,true,false,false],"id":51,"leaf_child_counts":[0,1,1,2,0,1,0,0,0,0,2,0,0],"left_children":[1,3,5,7,-1,9,-1,-1,-1,-1,11,-1,-1],"loss_changes":[8.95276355743408203e+00,1.16156291961669922e+00,1.10665225982666016e+00,2.03456878662109375e-02,0.00000000000000000e+00,4.06349182128906250e-01,0.00000000000000000e+00,0.00000000000000000e+00,0.00000000000000000e+00,0.00000000000000000e+00,1.19871616363525391e-01,0.00000000000000000e+00,0.00000000000000000e+00],"parents":[2147483647,0,0,1,1,2,2,3,3,5,5,10,10],"right_children":[2,4,6,8,-1,10,-1,-1,-1,-1,12,-1,-1],"split_conditions":[-3.32557618618011475e-01,-2.75959037244319916e-02,6.01015537977218628e-02,1.28344669938087463e-01,-5.89641742408275604e-04,-1.66945531964302063e-01,5.14003040734678507e-04,6.66794658172875643e-04,2.36989464610815048e-03,-1.59854491357691586e-04,-1.37835636734962463e-01,-4.73048683488741517e-04,-2.02858983539044857e-03],"split_indices":[566,207,53,406,0,367,0,0,0,0,265,0,0],"sum_hessian":[2.60443916320800781e+01,1.09281558990478516e+01,1.51162366867065430e+01,9.88858699798583984e+00,1.03956902027130127e+00,1.33081293106079102e+01,1.80810713768005371e+00,1.03781282901763916e+00,8.85077381134033203e+00,1.51434445381164551e+00,1.17937850952148438e+01,1.21080648899078369e+00,1.05829782485961914e+01],"tree_param":{"num_feature":"600","num_nodes":"13","size_leaf_vector":"0"}},{"base_weights":[-1.03121049477294946e-08,6.56705677509307861e-01,-4.81208145618438721e-01,-1.04232370853424072e-01,7.39880800247192383e-01,-5.80852508544921875e-01,2.22911864519119263e-01,7.85670876502990723e-01,1.80210083723068237e-01,-5.13287074863910675e-03,-6.30847275257110596e-01,-1.49498447775840759e-01,-6.63497328758239746e-01],"default_left":[true,true,true,false,true,true,false,false,false,false,true,false,false],"id":52,"leaf_child_counts":[0,1,1,0,2,1,0,0,0,0,2,0,0],"left_children":[1,3,5,-1,7,9,-1,-1,-1,-1,11,-1,-1],"loss_changes":[8.74524784088134766e+00,8.17806243896484375e-01,1.25002408027648926e+00,0.00000000000000000e+00,1.31939888000488281e-01,4.07445907592773438e-01,0.00000000000000000e+00,0.00000000000000000e+00,0.00000000000000000e+00,0.00000000000000000e+00,1.07003688812255859e-01,0.00000000000000000e+00,0.00000000000000000e+00],"parents":[2147483647,0,0,1,1,2,2,4,4,5,5,10,10],"right_children":[2,4,6,-1,8,10,-1,-1,-1,-1,12,-1,-1],"split_conditions":[-3.32557618618011475e-01,-1.51470273733139038e-01,6.01015537977218628e-02,-3.12697113258764148e-04,1.96267254650592804e-02,-1.76225006580352783e-01,6.68735592626035213e-04,2.35701259225606918e-03,5.40630251634865999e-04,-1.53986129589611664e-05,-1.37843430042266846e-01,-4.48495353339239955e-04,-1.99049199000000954e-03],"split_indices":[566,437,53,0,484,367,0,0,0,0,265,0,0],"sum_hessian":[2.56737709045410156e+01,1.07028579711914063e+01,1.49709138870239258e+01,1.02966558933258057e+00,9.67319297790527344e+00,1.32683010101318359e+01,1.70261299610137939e+00,8.56835460662841797e+00,1.10483837127685547e+00,1.14824438095092773e+00,1.21200561523437500e+01,1.12426066398620605e+00,1.09957952499389648e+01],"tree_param":{"num_feature":"600","num_nodes":"13","size_leaf_vector":"0"}},{"base_weights":[4.05476452414177402e-09,6.48836553096771240e-01,-4.67907458543777466e-01,7.53047347068786621e-01,-2.16538399457931519e-01,-5.62564849853515625e-01,1.85052484273910522e-01,-1.33561845868825912e-02,-6.13304734230041504e-01,-6.43198847770690918e-01,-1.45048543810844421e-01],"default_left":[true,true,true,false,false,true,false,false,true,false,false],"id":53,"leaf_child_counts":[0,2,1,0,0,1,0,0,2,0,0],"left_children":[1,3,5,-1,-1,7,-1,-1,9,-1,-1],"loss_changes":[8.30253314971923828e+00,1.19639301300048828e+00,1.08616375923156738e+00,0.00000000000000000e+00,0.00000000000000000e+00,3.85421276092529297e-01,0.00000000000000000e+00,0.00000000000000000e+00,8.73918533325195313e-02,0.00000000000000000e+00,0.00000000000000000e+00],"parents":[2147483647,0,0,1,1,2,2,5,5,8,8],"right_children":[2,4,6,-1,-1,8,-1,-1,10,-1,-1],"split_conditions":[-3.32557618618011475e-01,-2.75959037244319916e-02,6.01015537977218628e-02,2.25914199836552143e-03,-6.49615190923213959e-04,-1.76225006580352783e-01,5.55157428607344627e-04,-4.00685530621558428e-05,1.45247489213943481e-01,-1.92959653213620186e-03,-4.35145630035549402e-04],"split_indices":[566,207,53,0,0,367,0,0,129,0,0],"sum_hessian":[2.53473567962646484e+01,1.04583387374877930e+01,1.48890171051025391e+01,9.45013141632080078e+00,1.00820815563201904e+00,1.31247987747192383e+01,1.76421821117401123e+00,1.21685016155242920e+00,1.19079484939575195e+01,1.08421659469604492e+01,1.06578230857849121e+00],"tree_param":{"num_feature":"600","num_nodes":"11","size_leaf_vector":"0"}},{"base_weights":[-7.35938998630558672e-09,6.54754459857940674e-01,-4.73743587732315063e-01,-9.39153730869293213e-02,7.35725104808807373e-01,-5.71435630321502686e-01,2.08241686224937439e-01,7.71886527538299561e-01,2.36174851655960083e-01,-2.12874589487910271e-03,-6.23693883419036865e-01,-1.26301303505897522e-01,-6.57794773578643799e-01],"default_left":[true,true,true,false,true,true,false,false,false,false,true,false,false],"id":54,"leaf_child_counts":[0,1,1,0,2,1,0,0,0,0,2,0,0],"left_children":[1,3,5,-1,7,9,-1,-1,-1,-1,11,-1,-1],"loss_changes":[8.45810127258300781e+00,7.63019084930419922e-01,1.17305064201354980e+00,0.00000000000000000e+00,6.34813308715820313e-03,4.18327808380126953e-01,0.00000000000000000e+00,0.00000000000000000e+00,0.00000000000000000e+00,0.00000000000000000e+00,1.35998249053955078e-01,0.00000000000000000e+00,0.00000000000000000e+00],"parents":[2147483647,0,0,1,1,2,2,4,4,5,5,10,10],"right_children":[2,4,6,-1,8,10,-1,-1,-1,-1,12,-1,-1],"split_conditions":[-3.32557618618011475e-01,6.71594683080911636e-03,6.01015537977218628e-02,-2.81746120890602469e-04,-2.37613059580326080e-02,-1.76225006580352783e-01,6.24725071247667074e-04,2.31565954163670540e-03,7.08524545188993216e-04,-6.38623760096379556e-06,-1.37843430042266846e-01,-3.78903903765603900e-04,-1.97338429279625416e-03],"split_indices":[566,243,53,0,157,367,0,0,0,0,265,0,0],"sum_hessian":[2.52678604125976563e+01,1.04470500946044922e+01,1.48208103179931641e+01,1.00400102138519287e+00,9.44304943084716797e+00,1.31055812835693359e+01,1.71522903442382813e+00,8.29726505279541016e+00,1.14578473567962646e+00,1.18935632705688477e+00,1.19162254333496094e+01,1.06634640693664551e+00,1.08498783111572266e+01],"tree_param":{"num_feature":"600","num_nodes":"13","size_leaf_vector":"0"}},{"base_weights":[-6.24634477475183303e-09,6.30245923995971680e-01,-4.60811764001846313e-01,7.31508195400238037e-01,-2.04749822616577148e-01,-5.62156438827514648e-01,2.21203073859214783e-01,1.90947785973548889e-01,7.74592936038970947e-01,-4.06722947955131531e-02,-6.13620162010192871e-01,-1.69557422399520874e-01,-6.47328734397888184e-01],"default_left":[true,true,true,true,false,true,false,false,false,false,true,false,false],"id":55,"leaf_child_counts":[0,1,1,2,0,1,0,0,0,0,2,0,0],"left_children":[1,3,5,7,-1,9,-1,-1,-1,-1,11,-1,-1],"loss_changes":[7.95930433273315430e+00,1.12847518920898438e+00,1.21855545043945313e+00,9.76085662841796875e-02,0.00000000000000000e+00,3.52516174316406250e-01,0.00000000000000000e+00,0.00000000000000000e+00,0.00000000000000000e+00,0.00000000000000000e+00,8.08043479919433594e-02,0.00000000000000000e+00,0.00000000000000000e+00],"parents":[2147483647,0,0,1,1,2,2,3,3,5,5,10,10],"right_children":[2,4,6,8,-1,10,-1,-1,-1,-1,12,-1,-1],"split_conditions":[-3.32557618618011475e-01,-2.75959037244319916e-02,6.01015537977218628e-02,5.68450056016445160e-03,-6.14249496720731258e-04,-1.76225006580352783e-01,6.63609243929386139e-04,5.72843360714614391e-04,2.32377881184220314e-03,-1.22016885143239051e-04,-1.37843430042266846e-01,-5.08672266732901335e-04,-1.94198626559227705e-03],"split_indices":[566,207,53,79,0,367,0,0,0,0,265,0,0],"sum_hessian":[2.54057388305664063e+01,1.05749034881591797e+01,1.48308362960815430e+01,9.54169273376464844e+00,1.03321003913879395e+00,1.30651493072509766e+01,1.76568686962127686e+00,1.10535359382629395e+00,8.43633937835693359e+00,1.33435785770416260e+00,1.17307910919189453e+01,1.25309765338897705e+00,1.04776935577392578e+01],"tree_param":{"num_feature":"600","num_nodes":"13","size_leaf_vector":"0"}},{"base_weights":[-1.81813994970525528e-08,6.68865621089935303e-01,-4.75339293479919434e-01,2.06169877201318741e-02,7.39369690418243408e-01,-5.74238777160644531e-01,2.04028278589248657e-01,7.74631500244140625e-01,2.22753688693046570e-01,-7.43621438741683960e-02,-6.31996452808380127e-01,-6.64962053298950195e-01,-1.86778306961059570e-01,-6.93366050720214844e-01,-2.10467070341110229e-01],"default_left":[true,true,true,false,true,true,false,false,false,false,true,true,false,false,false],"id":56,"leaf_child_counts":[0,1,1,0,2,1,0,0,0,0,1,2,0,0,0],"left_children":[1,3,5,-1,7,9,-1,-1,-1,-1,11,13,-1,-1,-1],"loss_changes":[8.75794982910156250e+00,5.07772922515869141e-01,1.19907760620117188e+00,0.00000000000000000e+00,1.49416923522949219e-02,3.66402149200439453e-01,0.00000000000000000e+00,0.00000000000000000e+00,0.00000000000000000e+00,0.00000000000000000e+00,6.22262954711914063e-02,1.69897079467773438e-03,0.00000000000000000e+00,0.00000000000000000e+00,0.00000000000000000e+00],"parents":[2147483647,0,0,1,1,2,2,4,4,5,5,10,10,11,11],"right_children":[2,4,6,-1,8,10,-1,-1,-1,-1,12,14,-1,-1,-1],"split_conditions":[-3.32557618618011475e-01,6.85333013534545898e-02,6.01015537977218628e-02,6.18509657215327024e-05,-4.49029803276062012e-02,-1.66945531964302063e-01,6.12084812019020319e-04,2.32389452867209911e-03,6.68261083774268627e-04,-2.23086433834396303e-04,1.40115052461624146e-01,1.12943843007087708e-01,-5.60334941837936640e-04,-2.08009826019406319e-03,-6.31401198916137218e-04],"split_indices":[566,23,53,0,29,367,0,0,0,0,129,565,0,0,0],"sum_hessian":[2.55460834503173828e+01,1.04435234069824219e+01,1.51025600433349609e+01,1.15120530128479004e+00,9.29231739044189453e+00,1.33184595108032227e+01,1.78410065174102783e+00,8.23106861114501953e+00,1.06124877929687500e+00,1.61640465259552002e+00,1.17020549774169922e+01,1.04357852935791016e+01,1.26626920700073242e+00,9.32729434967041016e+00,1.10849106311798096e+00],"tree_param":{"num_feature":"600","num_nodes":"15","size_leaf_vector":"0"}},{"base_weights":[5.85090154103795612e-09,6.47711992263793945e-01,-4.78558629751205444e-01,7.45989441871643066e-01,-2.06201493740081787e-01,-5.73794484138488770e-01,1.85763806104660034e-01,-7.51184895634651184e-02,-6.29484951496124268e-01,-6.62792623043060303e-01,-1.96200162172317505e-01],"default_left":[true,true,true,false,false,true,false,false,true,false,false],"id":57,"leaf_child_counts":[0,2,1,0,0,1,0,0,2,0,0],"left_children":[1,3,5,-1,-1,7,-1,-1,9,-1,-1],"loss_changes":[8.66208648681640625e+00,1.15029764175415039e+00,1.12336325645446777e+00,0.00000000000000000e+00,0.00000000000000000e+00,3.49863052368164063e-01,0.00000000000000000e+00,0.00000000000000000e+00,5.36537170410156250e-02,0.00000000000000000e+00,0.00000000000000000e+00],"parents":[2147483647,0,0,1,1,2,2,5,5,8,8],"right_children":[2,4,6,-1,-1,8,-1,-1,10,-1,-1],"split_conditions":[-3.32557618618011475e-01,-2.75959037244319916e-02,6.01015537977218628e-02,2.23796837963163853e-03,-6.18604477494955063e-04,-1.66945531964302063e-01,5.57291437871754169e-04,-2.25355470320209861e-04,1.40115052461624146e-01,-1.98837788775563240e-03,-5.88600465562194586e-04],"split_indices":[566,207,53,0,0,367,0,0,129,0,0],"sum_hessian":[2.59450855255126953e+01,1.08740215301513672e+01,1.50710639953613281e+01,