{"learner":{"attributes":{},"gradient_booster":{"model":{"gbtree_model_param":{"num_trees":"10","size_leaf_vector":"0"},"tree_info":[0,0,0,0,0,0,0,0,0,0],"trees":[{"base_weights":[-2.26470474153757095e-02,4.67374362051486969e-02,-1.49166822433471680e-01,1.30713805556297302e-01,-1.02503359317779541e-01,1.87903761863708496e-01,-1.81438755244016647e-02],"default_left":[true,true,false,true,false,false,false],"id":0,"leaf_child_counts":[1,1,0,2,0,0,0],"left_children":[1,3,-1,5,-1,-1,-1],"loss_changes":[7.31766968965530396e-02,8.39834213256835938e-02,0.00000000000000000e+00,3.78330647945404053e-02,0.00000000000000000e+00,0.00000000000000000e+00,0.00000000000000000e+00],"parents":[2147483647,0,0,1,1,3,3],"right_children":[2,4,-1,6,-1,-1,-1],"split_conditions":[-3.77649627625942230e-02,1.29055641591548920e-02,-4.47500497102737427e-02,-1.04537913575768471e-02,-3.07510085403919220e-02,5.63711300492286682e-02,-5.44316275045275688e-03],"split_indices":[2,598,0,171,0,0,0],"sum_hessian":[6.54171466827392578e+00,4.63205146789550781e+00,1.90966320037841797e+00,3.04359269142150879e+00,1.58845889568328857e+00,2.00932216644287109e+00,1.03427040576934814e+00],"tree_param":{"num_feature":"600","num_nodes":"7","size_leaf_vector":"0"}},{"base_weights":[4.36913445591926575e-02,1.16532407701015472e-01,-1.59107178449630737e-01,-9.60354208946228027e-02,1.92077353596687317e-01,-2.32651725411415100e-01,-1.55666703358292580e-02,1.64980608969926834e-02,2.52232581377029419e-01,4.47368100285530090e-02,3.00099909305572510e-01],"default_left":[true,true,true,false,true,false,false,false,true,false,false],"id":1,"leaf_child_counts":[0,1,2,0,1,0,0,0,2,0,0],"left_children":[1,3,5,-1,7,-1,-1,-1,9,-1,-1],"loss_changes":[1.74190267920494080e-01,1.52204841375350952e-01,3.02358567714691162e-02,0.00000000000000000e+00,6.42675906419754028e-02,0.00000000000000000e+00,0.00000000000000000e+00,0.00000000000000000e+00,3.38076055049896240e-02,0.00000000000000000e+00,0.00000000000000000e+00],"parents":[2147483647,0,0,1,1,2,2,4,4,8,8],"right_children":[2,4,6,-1,8,-1,-1,-1,10,-1,-1],"split_conditions":[-3.23321446776390076e-02,2.80678533017635345e-02,-1.29970256239175797e-02,-2.88106277585029602e-02,-3.23226973414421082e-02,-6.97955191135406494e-02,-4.67000110074877739e-03,4.94941836223006248e-03,7.32612162828445435e-02,1.34210437536239624e-02,9.00299772620201111e-02],"split_indices":[2,599,429,0,89,0,0,0,556,0,0],"sum_hessian":[9.53672409057617188e+00,7.32949781417846680e+00,2.20722651481628418e+00,1.85071980953216553e+00,5.47877788543701172e+00,1.04896771907806396e+00,1.15825879573822021e+00,1.72325396537780762e+00,3.75552392005920410e+00,1.06660282611846924e+00,2.68892097473144531e+00],"tree_param":{"num_feature":"600","num_nodes":"11","size_leaf_vector":"0"}},{"base_weights":[-3.08042671531438828e-02,-1.07486419379711151e-01,1.41744390130043030e-01,-2.72747129201889038e-01,2.59349262341856956e-03,-5.41509464383125305e-02,2.70085304975509644e-01,-1.32554739713668823e-01,1.03770524263381958e-01,2.21304967999458313e-01,-4.20682765543460846e-02],"default_left":[true,true,true,false,true,false,false,false,true,false,false],"id":2,"leaf_child_counts":[0,1,2,0,1,0,0,0,2,0,0],"left_children":[1,3,5,-1,7,-1,-1,-1,9,-1,-1],"loss_changes":[1.54778018593788147e-01,1.43881052732467651e-01,1.07047893106937408e-01,0.00000000000000000e+00,9.18921455740928650e-02,0.00000000000000000e+00,0.00000000000000000e+00,0.00000000000000000e+00,7.49390572309494019e-02,0.00000000000000000e+00,0.00000000000000000e+00],"parents":[2147483647,0,0,1,1,2,2,4,4,8,8],"right_children":[2,4,6,-1,8,-1,-1,-1,10,-1,-1],"split_conditions":[1.27508327364921570e-01,-6.95707648992538452e-02,8.23316425085067749e-02,-8.18241387605667114e-02,5.61284869909286499e-02,-1.62452850490808487e-02,8.10255929827690125e-02,-3.97664234042167664e-02,4.53552082180976868e-02,6.63914903998374939e-02,-1.26204835250973701e-02],"split_indices":[128,300,295,0,493,0,0,0,532,0,0],"sum_hessian":[9.54630661010742188e+00,6.87019634246826172e+00,2.67611026763916016e+00,2.15588760375976563e+00,4.71430873870849609e+00,1.28808689117431641e+00,1.38802349567413330e+00,1.88554573059082031e+00,2.82876324653625488e+00,1.27984631061553955e+00,1.54891693592071533e+00],"tree_param":{"num_feature":"600","num_nodes":"11","size_leaf_vector":"0"}},{"base_weights":[-5.63217587769031525e-02,6.78683966398239136e-02,-2.07203418016433716e-01,1.87066778540611267e-01,-1.51540890336036682e-01,4.98733595013618469e-02,-2.99300104379653931e-01,-7.01912194490432739e-02,2.72358059883117676e-01,-2.16663464903831482e-01,-1.23148327693343163e-02,-3.39746415615081787e-01,-8.81033912301063538e-02,3.43153536319732666e-01,3.41580547392368317e-02],"default_left":[true,true,true,true,true,false,true,false,true,false,false,false,false,false,false],"id":3,"leaf_child_counts":[0,0,1,1,2,0,2,0,2,0,0,0,0,0,0],"left_children":[1,3,5,7,9,-1,11,-1,13,-1,-1,-1,-1,-1,-1],"loss_changes":[2.28464797139167786e-01,2.12191343307495117e-01,1.43076285719871521e-01,1.28880336880683899e-01,2.47769430279731750e-02,0.00000000000000000e+00,5.32782077789306641e-03,0.00000000000000000e+00,5.50883412361145020e-02,0.00000000000000000e+00,0.00000000000000000e+00,0.00000000000000000e+00,0.00000000000000000e+00,0.00000000000000000e+00,0.00000000000000000e+00],"parents":[2147483647,0,0,1,1,2,2,3,3,4,4,6,6,8,8],"right_children":[2,4,6,8,10,-1,12,-1,14,-1,-1,-1,-1,-1,-1],"split_conditions":[-9.35818068683147430e-03,2.68952641636133194e-03,-9.07775759696960449e-02,-2.24972814321517944e-02,-1.95385850965976715e-02,1.49620082229375839e-02,1.49399071931838989e-01,-2.10573673248291016e-02,-1.07716512866318226e-03,-6.49990439414978027e-02,-3.69445001706480980e-03,-1.01923927664756775e-01,-2.64310184866189957e-02,1.02946065366268158e-01,1.02474167943000793e-02],"split_indices":[403,598,335,89,398,0,206,0,37,0,0,0,0,0,0],"sum_hessian":[1.04420967102050781e+01,6.02945899963378906e+00,4.41263818740844727e+00,4.00245428085327148e+00,2.02700448036193848e+00,1.28478443622589111e+00,3.12785363197326660e+00,1.04065191745758057e+00,2.96180248260498047e+00,1.00208377838134766e+00,1.02492070198059082e+00,2.11427569389343262e+00,1.01357793807983398e+00,1.94354903697967529e+00,1.01825344562530518e+00],"tree_param":{"num_feature":"600","num_nodes":"15","size_leaf_vector":"0"}},{"base_weights":[-2.26823855191469193e-02,-1.21586963534355164e-01,2.58964836597442627e-01,-1.68069601058959961e-01,1.33310943841934204e-01,4.08318430185317993e-01,-8.03018361330032349e-02,-2.19236731529235840e-01,1.57646052539348602e-02,-4.08760097343474627e-04,-2.66814470291137695e-01,-3.04216116666793823e-01,-3.87073792517185211e-02,-7.08813890814781189e-02,-3.44978034496307373e-01],"default_left":[true,true,true,true,false,false,false,true,false,false,true,true,false,false,false],"id":4,"leaf_child_counts":[0,1,2,1,0,0,0,1,0,0,1,2,0,0,0],"left_children":[1,3,5,7,-1,-1,-1,9,-1,-1,11,13,-1,-1,-1],"loss_changes":[4.06505912542343140e-01,1.48522168397903442e-01,2.26270854473114014e-01,9.22974646091461182e-02,0.00000000000000000e+00,0.00000000000000000e+00,0.00000000000000000e+00,7.75130689144134521e-02,0.00000000000000000e+00,0.00000000000000000e+00,4.04592454433441162e-02,2.41900384426116943e-02,0.00000000000000000e+00,0.00000000000000000e+00,0.00000000000000000e+00],"parents":[2147483647,0,0,1,1,2,2,3,3,7,7,10,10,11,11],"right_children":[2,4,6,8,-1,-1,-1,10,-1,-1,12,14,-1,-1,-1],"split_conditions":[6.52312412858009338e-02,1.36384189128875732e-01,-4.12503778934478760e-02,9.17044952511787415e-02,3.99932861328125000e-02,1.22495532035827637e-01,-2.40905527025461197e-02,-7.54684805870056152e-02,4.72938176244497299e-03,-1.22628029203042388e-04,2.31781840324401855e-01,-5.89432120323181152e-02,-1.16122141480445862e-02,-2.12644170969724655e-02,-1.03493414819240570e-01],"split_indices":[362,23,294,11,0,0,0,306,0,0,242,75,0,0,0],"sum_hessian":[1.24626817703247070e+01,9.64425849914550781e+00,2.81842303276062012e+00,8.44490337371826172e+00,1.19935476779937744e+00,1.81561303138732910e+00,1.00281012058258057e+00,6.45553588867187500e+00,1.98936736583709717e+00,1.33302831649780273e+00,5.12250757217407227e+00,4.11425781250000000e+00,1.00825023651123047e+00,1.01916003227233887e+00,3.09509754180908203e+00],"tree_param":{"num_feature":"600","num_nodes":"15","size_leaf_vector":"0"}},{"base_weights":[2.74539608508348465e-02,4.65575605630874634e-01,-1.45563542842864990e-01,5.52599370479583740e-01,6.77805393934249878e-02,1.03352874517440796e-01,-2.07263097167015076e-01,2.51329988241195679e-01,-9.20887663960456848e-02,-2.55523413419723511e-01,2.26843096315860748e-02,-3.46815213561058044e-02,-3.15508604049682617e-01,-1.28190636634826660e-01,7.52874836325645447e-02,-5.16332387924194336e-02,-3.50626260042190552e-01,-3.87362062931060791e-01,-1.01842388510704041e-01],"default_left":[true,true,true,false,false,true,true,false,false,true,false,true,true,false,false,false,true,false,false],"id":5,"leaf_child_counts":[0,2,0,0,0,2,1,0,0,0,0,2,1,0,0,0,2,0,0],"left_children":[1,3,5,-1,-1,7,9,-1,-1,11,-1,13,15,-1,-1,-1,17,-1,-1],"loss_changes":[1.38573610782623291e+00,1.41188621520996094e-01,2.24551022052764893e-01,0.00000000000000000e+00,0.00000000000000000e+00,1.18424057960510254e-01,1.27110272645950317e-01,0.00000000000000000e+00,0.00000000000000000e+00,1.09833002090454102e-01,0.00000000000000000e+00,4.12296317517757416e-02,4.71900105476379395e-02,0.00000000000000000e+00,0.00000000000000000e+00,0.00000000000000000e+00,1.58046483993530273e-02,0.00000000000000000e+00,0.00000000000000000e+00],"parents":[2147483647,0,0,1,1,2,2,5,5,6,6,9,9,11,11,12,12,16,16],"right_children":[2,4,6,-1,-1,8,10,-1,-1,12,-1,14,16,-1,-1,-1,18,-1,-1],"split_conditions":[-3.50253969430923462e-01,-1.05659157037734985e-01,-3.78568135201931000e-02,1.65779814124107361e-01,2.03341618180274963e-02,-6.43769875168800354e-02,1.88962161540985107e-01,7.53989964723587036e-02,-2.76266317814588547e-02,-3.87738496065139771e-02,6.80529326200485229e-03,3.00573110580444336e-02,-2.12299227714538574e-01,-3.84571924805641174e-02,2.25862450897693634e-02,-1.54899721965193748e-02,1.29628717899322510e-01,-1.16208620369434357e-01,-3.05527169257402420e-02],"split_indices":[283,35,304,0,0,204,515,0,0,375,0,48,19,0,0,0,367,0,0],"sum_hessian":[1.63867835998535156e+01,4.16049623489379883e+00,1.22262868881225586e+01,3.09439420700073242e+00,1.06610214710235596e+00,2.29448366165161133e+00,9.93180274963378906e+00,1.14306306838989258e+00,1.15142059326171875e+00,8.11701583862304688e+00,1.81478762626647949e+00,2.07090950012207031e+00,6.04610586166381836e+00,1.02966463565826416e+00,1.04124486446380615e+00,1.00027704238891602e+00,5.04582881927490234e+00,3.91126346588134766e+00,1.13456535339355469e+00],"tree_param":{"num_feature":"600","num_nodes":"19","size_leaf_vector":"0"}},{"base_weights":[1.73549167811870575e-02,3.96644234657287598e-01,-1.17397405207157135e-01,1.36317377910017967e-02,5.00492632389068604e-01,-2.56141781806945801e-01,4.23409007489681244e-02,-3.22900600731372833e-02,-3.03220272064208984e-01,1.92733898758888245e-01,-9.81746837496757507e-02,-7.02631846070289612e-02,-3.40979188680648804e-01,2.67989784479141235e-01,1.53914804104715586e-03,1.09136298298835754e-01,-2.31221228837966919e-01],"default_left":[true,true,true,false,false,true,true,false,true,true,true,false,false,false,false,false,false],"id":6,"leaf_child_counts":[0,2,0,0,0,1,0,0,2,2,2,0,0,0,0,0,0],"left_children":[1,3,5,-1,-1,7,9,-1,11,13,15,-1,-1,-1,-1,-1,-1],"loss_changes":[9.02192115783691406e-01,1.76814734935760498e-01,3.01709294319152832e-01,0.00000000000000000e+00,0.00000000000000000e+00,6.57221674919128418e-02,1.65974527597427368e-01,0.00000000000000000e+00,2.70693898200988770e-02,5.28054982423782349e-02,1.42732799053192139e-01,0.00000000000000000e+00,0.00000000000000000e+00,0.00000000000000000e+00,0.00000000000000000e+00,0.00000000000000000e+00,0.00000000000000000e+00],"parents":[2147483647,0,0,1,1,2,2,5,5,6,6,8,8,9,9,10,10],"right_children":[2,4,6,-1,-1,8,10,-1,12,14,16,-1,-1,-1,-1,-1,-1],"split_conditions":[-3.10654938220977783e-01,2.20804154872894287e-01,1.33924353867769241e-02,4.08952170982956886e-03,1.50147795677185059e-01,-3.71546223759651184e-02,-3.27145904302597046e-02,-9.68701858073472977e-03,-1.49534106254577637e-01,-1.68010637164115906e-01,-7.99034088850021362e-02,-2.10789553821086884e-02,-1.02293759584426880e-01,8.03969353437423706e-02,4.61744435597211123e-04,3.27408909797668457e-02,-6.93663731217384338e-02],"split_indices":[219,6,89,0,0,348,480,0,60,222,335,0,0,0,0,0,0],"sum_hessian":[1.57408561706542969e+01,3.61687636375427246e+00,1.21239805221557617e+01,1.01278793811798096e+00,2.60408854484558105e+00,6.16538476943969727e+00,5.95859527587890625e+00,1.36428320407867432e+00,4.80110168457031250e+00,2.69863867759704590e+00,3.25995659828186035e+00,1.06867158412933350e+00,3.73242998123168945e+00,1.64822471141815186e+00,1.05041408538818359e+00,1.34457504749298096e+00,1.91538155078887939e+00],"tree_param":{"num_feature":"600","num_nodes":"17","size_leaf_vector":"0"}},{"base_weights":[3.02100162953138351e-02,-9.63920503854751587e-02,3.50355744361877441e-01,1.27690836787223816e-01,-1.66579157114028931e-01,4.53514814376831055e-01,-1.06706917285919189e-02,2.74970114231109619e-01,-1.28790780901908875e-01,6.56164810061454773e-02,-2.29132577776908875e-01,3.50484019145369530e-03,-2.63500273227691650e-01,-2.91934847831726074e-01,-4.36276309192180634e-02,-3.30349355936050415e-01,-6.67025446891784668e-02],"default_left":[true,true,true,true,true,false,false,false,false,false,true,false,true,true,false,false,false],"id":7,"leaf_child_counts":[0,0,2,2,1,0,0,0,0,0,1,0,1,2,0,0,0],"left_children":[1,3,5,7,9,-1,-1,-1,-1,-1,11,-1,13,15,-1,-1,-1],"loss_changes":[7.14182138442993164e-01,2.22810447216033936e-01,1.90052092075347900e-01,1.72249466180801392e-01,1.63067758083343506e-01,0.00000000000000000e+00,0.00000000000000000e+00,0.00000000000000000e+00,0.00000000000000000e+00,0.00000000000000000e+00,6.68959617614746094e-02,0.00000000000000000e+00,3.22936177253723145e-02,3.16260457038879395e-02,0.00000000000000000e+00,0.00000000000000000e+00,0.00000000000000000e+00],"parents":[2147483647,0,0,1,1,2,2,3,3,4,4,10,10,12,12,13,13],"right_children":[2,4,6,8,10,-1,-1,-1,-1,-1,12,-1,14,16,-1,-1,-1],"split_conditions":[3.14899742603302002e-01,-3.58107537031173706e-02,-9.74989980459213257e-02,-1.26130878925323486e-01,-1.11762121319770813e-01,1.36054456233978271e-01,-3.20120761170983315e-03,8.24910402297973633e-02,-3.86372357606887817e-02,1.96849443018436432e-02,-6.67931661009788513e-02,1.05145212728530169e-03,7.20766708254814148e-02,1.71036347746849060e-01,-1.30882896482944489e-02,-9.91048142313957214e-02,-2.00107637792825699e-02],"split_indices":[280,304,153,77,335,0,0,0,0,0,476,0,531,161,0,0,0],"sum_hessian":[1.57873668670654297e+01,1.18142976760864258e+01,3.97306847572326660e+00,2.62244749069213867e+00,9.19185066223144531e+00,2.89085793495178223e+00,1.08221054077148438e+00,1.62007045745849609e+00,1.00237703323364258e+00,1.94035804271697998e+00,7.25149250030517578e+00,1.04896867275238037e+00,6.20252370834350586e+00,5.20203638076782227e+00,1.00048744678497314e+00,4.04537296295166016e+00,1.15666353702545166e+00],"tree_param":{"num_feature":"600","num_nodes":"17","size_leaf_vector":"0"}},{"base_weights":[-4.04912568628787994e-02,-1.25387907028198242e-01,2.89279282093048096e-01,-1.74559280276298523e-01,9.07564610242843628e-02,8.73823985457420349e-02,3.44025135040283203e-01,-2.22676560282707214e-01,7.04328715801239014e-02,2.85149160772562027e-02,-2.58633852005004883e-01,-3.06164264678955078e-01,-5.42252697050571442e-02,-3.39049816131591797e-01,-6.81485757231712341e-02],"default_left":[true,true,true,true,false,false,false,true,false,false,true,true,false,false,false],"id":8,"leaf_child_counts":[0,1,2,1,0,0,0,1,0,0,1,2,0,0,0],"left_children":[1,3,5,7,-1,-1,-1,9,-1,-1,11,13,-1,-1,-1],"loss_changes":[4.46765303611755371e-01,1.47185444831848145e-01,6.46039843559265137e-03,1.38398289680480957e-01,0.00000000000000000e+00,0.00000000000000000e+00,0.00000000000000000e+00,8.81334245204925537e-02,0.00000000000000000e+00,0.00000000000000000e+00,6.03544712066650391e-02,2.55118608474731445e-02,0.00000000000000000e+00,0.00000000000000000e+00,0.00000000000000000e+00],"parents":[2147483647,0,0,1,1,2,2,3,3,7,7,10,10,11,11],"right_children":[2,4,6,8,-1,-1,-1,10,-1,-1,12,14,-1,-1,-1],"split_conditions":[1.71959787607192993e-01,1.84906572103500366e-01,2.15581804513931274e-02,2.34350621700286865e-01,2.72269397974014282e-02,2.62147206813097000e-02,1.03207543492317200e-01,-1.72203928232192993e-01,2.11298614740371704e-02,8.55447538197040558e-03,1.63328364491462708e-01,1.39004796743392944e-01,-1.62675809115171432e-02,-1.01714946329593658e-01,-2.04445738345384598e-02],"split_indices":[23,495,538,588,0,0,0,295,0,0,204,406,0,0,0],"sum_hessian":[1.36623487472534180e+01,1.13580799102783203e+01,2.30426955223083496e+00,9.40980720520019531e+00,1.94827210903167725e+00,1.04533421993255615e+00,1.25893533229827881e+00,7.94121313095092773e+00,1.46859419345855713e+00,1.02033162117004395e+00,6.92088174819946289e+00,5.21130943298339844e+00,1.70957231521606445e+00,4.20573663711547852e+00,1.00557255744934082e+00],"tree_param":{"num_feature":"600","num_nodes":"15","size_leaf_vector":"0"}},{"base_weights":[4.71753031015396118e-02,-9.16134491562843323e-02,2.70695626735687256e-01,-1.82171195745468140e-01,1.30231991410255432e-01,-8.53762403130531311e-02,3.57784390449523926e-01,6.29245936870574951e-02,-2.31262519955635071e-01,2.31009110808372498e-01,-5.80503083765506744e-02,1.49649130180478096e-02,4.37664091587066650e-01,-3.00668203271925449e-03,-2.73039609193801880e-01,-3.07649374008178711e-01,-5.20606860518455505e-02,-3.47074866294860840e-01,-9.94043871760368347e-02],"default_left":[true,true,true,true,true,false,true,false,true,false,false,false,false,false,true,true,false,false,false],"id":9,"leaf_child_counts":[0,0,1,1,2,0,2,0,1,0,0,0,0,0,1,2,0,0,0],"left_children":[1,3,5,7,9,-1,11,-1,13,-1,-1,-1,-1,-1,15,17,-1,-1,-1],"loss_changes":[5.32166481018066406e-01,2.41439640522003174e-01,2.32666462659835815e-01,1.12163037061691284e-01,8.40813145041465759e-02,0.00000000000000000e+00,1.42138898372650146e-01,0.00000000000000000e+00,6.56698048114776611e-02,0.00000000000000000e+00,0.00000000000000000e+00,0.00000000000000000e+00,0.00000000000000000e+00,0.00000000000000000e+00,2.89755165576934814e-02,5.58552145957946777e-03,0.00000000000000000e+00,0.00000000000000000e+00,0.00000000000000000e+00],"parents":[2147483647,0,0,1,1,2,2,3,3,4,4,6,6,8,8,14,14,15,15],"right_children":[2,4,6,8,10,-1,12,-1,14,-1,-1,-1,-1,-1,16,18,-1,-1,-1],"split_conditions":[5.86854368448257446e-02,6.29184693098068237e-02,9.18664485216140747e-02,-2.67156660556793213e-01,4.50700968503952026e-02,-2.56128739565610886e-02,1.19210198521614075e-01,1.88773795962333679e-02,-6.15854337811470032e-02,6.93027377128601074e-02,-1.74150932580232620e-02,4.48947399854660034e-03,1.31299227476119995e-01,-9.02004656381905079e-04,1.78631514310836792e-01,4.85585350543260574e-03,-1.56182060018181801e-02,-1.04122467339038849e-01,-2.98213176429271698e-02],"split_indices":[23,487,556,90,81,0,442,0,476,0,0,0,0,0,515,511,0,0,0],"sum_hessian":[1.53550176620483398e+01,9.83708572387695313e+00,5.51793193817138672e+00,7.11256122589111328e+00,2.72452425956726074e+00,1.08823406696319580e+00,4.42969799041748047e+00,1.13985896110534668e+00,5.97270250320434570e+00,1.62683796882629395e+00,1.09768629074096680e+00,1.06148171424865723e+00,3.36821627616882324e+00,1.08988881111145020e+00,4.88281345367431641e+00,3.88252067565917969e+00,1.00029313564300537e+00,2.70393776893615723e+00,1.17858278751373291e+00],"tree_param":{"num_feature":"600","num_nodes":"19","size_leaf_vector":"0"}}]},"name":"gbtree"},"learner_model_param":{"base_score":"0.500000","num_class":"0","num_feature":"600"},"objective":{"lambda_rank_param":{"fix_list_weight":"0","num_pairsample":"1"},"name":"rank:ndcg"}},"version":[1,0,2]}